915 300
deepika 0.0012509559 -0.0007147054 0.0011476245 0.00011028483 0.00038982285 0.00066604075 0.0017875403 0.001293238 -6.4948144e-05 -0.00018586876 0.00054065377 0.00023313865 -0.0015207011 0.00014624676 -0.0012101212 -0.0010289933 -0.0006145126 0.0011371378 -0.0009412296 0.0012595908 0.0011442094 0.0009123242 0.0012213776 0.0008306057 -0.0013586468 -0.0007639356 0.0012424912 0.0004860772 0.0012441978 -7.08246e-05 -0.0014237268 0.0007097287 -0.00029741056 -0.00011270895 -0.0002957111 0.00040177457 0.0014625058 -0.0008456265 0.0013534767 0.0014423825 -0.0014919296 0.0012828911 0.0016375305 0.000123482 -0.000116643445 -0.0012912129 -0.0006737301 -0.00080091227 -0.0006927613 0.0010401139 0.00059426064 -0.0002266921 8.8753324e-05 -0.0002838051 0.0006804367 -0.0009410859 -0.0014352219 0.0012635521 0.0010839959 -0.0011892577 -0.00033115217 0.00021845134 -0.0013206864 -0.0006082954 0.00126564 -0.00015669674 0.00087239954 0.0011640891 -0.0015209378 0.0014800789 -0.0017490827 -0.0009347304 0.0013386108 -0.0011798209 0.00037649318 0.0015805643 0.0012658798 -0.0006352248 -0.0016311923 -0.00096738583 -0.00076238194 0.00055920845 0.0012650015 0.00031788193 -0.0007046635 -0.0011535176 0.00085980666 -0.001197052 0.0015130183 -0.0010482378 0.00016936733 -0.0013975287 -1.4620343e-05 -0.001139251 -4.7143792e-05 -0.0015596356 0.00011864106 -0.001333566 -0.001016316 -0.0010240867 -0.001026965 -0.0013742639 -0.0014052987 0.0002562717 -0.0008574739 3.398844e-05 -0.00030324294 -0.0011042554 -0.0011815059 0.00040532206 0.00027329318 0.00033597465 -0.001667296 -0.0010094624 0.00023668613 -0.00046357006 0.00030572352 -0.0002632096 0.0002306929 -0.00056622707 0.0005963888 0.0014622252 -0.0011177371 -0.00058591494 -0.00059812685 -0.0005564633 0.0008823215 0.0015256866 0.0013580723 0.0012660294 -0.0012851006 0.0016339484 0.0007261642 0.00095235585 -0.0015649247 0.0016903698 0.00024774164 0.00016193288 -3.9118077e-05 -3.7936512e-05 -0.00026926555 -0.000733562 0.0006155969 0.0009765665 -0.00030251956 0.0007827828 0.0003989087 -0.0007832022 0.0011573773 -0.00013848928 -0.0007409564 0.00045031824 -0.0013347333 -0.00094760815 0.0008654682 -0.0011813365 0.0016791081 0.00093434943 -0.0015645046 -0.00041637124 0.00093298726 -0.0017960073 0.0015088134 0.0017636273 -0.00062513375 0.0006281968 0.0010972455 0.0015160874 -0.00015955708 0.0014897882 0.00016519979 0.0010058834 -0.0013320831 -1.11435065e-05 0.00061277096 -0.00096235186 0.0001315323 -0.00028599115 -0.00059431867 -2.8273504e-05 -0.0016788938 0.0011343986 -0.00034305028 0.00076504226 -0.00061050116 0.00023447293 0.000746973 0.0008741366 0.0015778001 -0.00019754756 -8.603366e-05 6.074169e-05 0.0008797863 0.000946488 0.0006855413 0.0007994447 -0.0006629678 0.0012650278 -0.00059490115 -0.00055621495 0.0008656943 0.00012369976 -0.0012844921 -0.0013180915 0.0016510017 0.0002469314 -5.94888e-05 0.0008561964 3.0692736e-05 0.0007512524 0.00058208866 -2.213437e-06 0.001557643 -0.00043744568 -0.0008390466 -0.00015033434 0.00019818764 -0.0016659223 -0.0012302718 0.001202234 0.00057121663 0.0007022032 0.0011153723 0.0014638327 -8.37537e-06 -0.0003701853 0.0002740219 0.0018133527 0.001300864 -0.0005330022 -0.0012922997 -0.00080757646 -0.0011393748 0.00038845415 -6.1849365e-05 0.001526205 -0.00094155263 -0.0015908224 0.0010839453 0.00081011606 0.0015084029 0.0018197659 0.0016611675 -0.0012357436 -0.00019743183 0.0014953678 -0.00028908093 0.000841364 0.0012863884 0.0005834647 -0.00040251258 -0.0016121102 -0.00034693372 -0.00029350416 0.0007823868 0.000948385 -0.00044261085 0.0009881424 0.00054245983 -0.000728227 -0.001068519 -6.6953566e-05 0.00026690343 0.0011136 0.001364401 -2.3701255e-05 0.0011657041 0.00034628843 -0.00095000764 0.0006851166 -0.0005158942 0.00014591921 0.0009493392 -0.0001242298 -0.0014905217 -0.0008306212 0.0012764812 -0.0007576258 0.0008122698 0.0008114457 -0.0015177795 0.00010397221 -0.001078938 -0.00021436773 -0.0012871573 0.00016105102 0.0014937118 -0.0012164459 -3.486069e-05 -0.00068755134 -0.00037924215 -0.000956416 0.0008073291 0.00025352376 -0.0013414227 -0.00024138474 0.0016424642 5.810996e-05 0.00031493968 -0.001208526
ranveer -0.00040701003 0.0006044778 -0.00088623 -0.0009025801 -0.0015407288 -0.0010679632 -0.0007650044 -0.00036811293 -0.0007061323 -0.0012858604 -0.00057756045 -0.0015769803 0.00014494642 -4.4092507e-05 -0.00051392236 -0.00150944 0.0007056175 0.0010415687 0.00019114936 -0.00022095196 0.00080660643 -0.0005748167 -0.000749069 0.00037648983 0.00046639133 0.00053960073 0.0017383945 0.00021235549 0.00062169635 0.0009531523 0.0014906689 -0.0006496891 -0.0006421325 0.0009828855 -0.00052096153 0.000719587 0.0012713543 -0.0012304515 0.00086258334 -0.00020391458 -0.0010799835 7.46205e-05 0.00043051102 0.0008840325 -0.00029365977 -0.0010358134 -0.00093195355 0.0013616919 -9.829075e-05 0.00065330294 0.00038896556 0.00041137432 0.00011805093 -0.0016007015 0.0017171549 -0.001111423 -0.0013712664 0.0002360387 -0.0011531407 -0.00090819405 -0.00013441441 -2.877152e-05 -0.00041335047 -0.0003154553 -0.0008337037 -0.0007679635 -0.0006592849 0.00010764261 0.0011799883 -0.0006901281 -0.0014677083 0.00035819397 -0.00040645082 0.001558894 0.0011805971 0.0011320194 0.00020633236 -0.0004230091 -0.0013667989 -0.0013681882 0.0011080677 -0.0007034796 0.00062036887 0.00054729555 -0.00055585144 0.00016627827 -0.0007209823 0.001546623 0.00033286668 -7.4310956e-05 -0.0009936388 0.0011955923 -1.43254565e-05 0.00043049498 -0.0009012158 -0.00091565883 0.0011186012 1.3724034e-05 0.00081769313 -0.00072986295 -0.000487382 0.0009143256 -0.0006788345 6.8314484e-06 -0.0014690014 0.0010107553 -0.00021299817 -0.0018749976 -0.0016856178 0.0015942843 -0.0016552379 0.0016567552 0.0011128379 -0.0018252259 -0.0012632724 -0.0013390476 0.0013895978 -0.0005612025 0.0008847114 -0.000282133 0.0013669028 0.0018158394 8.1638966e-05 0.000475555 0.0011269114 0.0007948342 0.0014926804 -0.00018013282 0.00090802315 0.0015229632 0.001142765 -0.00034026874 0.0005668835 -0.0016388259 0.00063262205 -0.0007831628 0.00035784265 0.0010147035 0.00011257295 0.0009991331 0.00035042688 0.00061217515 0.00050861074 -0.0011093451 0.0015075366 0.0011261987 4.7982212e-05 0.0002220559 0.0005654854 0.0004516077 0.0008220368 0.0007035775 0.0011454725 -0.0018408273 0.0015679051 -0.00037442642 -0.0015225118 0.0008953225 -0.00052291824 -0.00031903008 -0.001713093 -0.0017606722 -9.381042e-05 -0.0006248839 -0.0007107668 0.0015869997 0.0009676396 0.0012834358 0.0007634753 -0.0015305605 -0.00071944064 0.0007389045 0.0016053687 -0.001035477 -0.0013941311 -0.00026715355 -0.0008905735 0.00030876408 -0.00030819525 -0.001617954 0.0007084205 0.001496508 -0.0011784796 0.00030971007 -0.0004998701 -0.00096860155 -0.0005417831 0.0015337097 -0.00031238972 -9.1514994e-07 0.0001528853 -0.0009008582 -0.0005469658 -0.0015783177 0.0002043547 -0.0014679634 -0.00014035932 -0.0010354813 -0.0006039777 0.0015184928 0.0016644017 -0.0013409306 -0.0012438861 -0.0006774424 -0.0010320201 0.0004067064 0.0010765985 -0.0006291372 6.9012225e-05 0.0008977624 -0.0015056453 0.00081660756 -0.001215422 0.0003232609 -0.0012622683 -0.0011813294 0.0014922528 -0.0002058977 0.0004210557 -0.0013335304 8.1552906e-05 -0.00088704476 -0.0012495571 -0.00095293974 -0.0005488651 0.0014983426 0.0008317502 0.0003937051 -0.0015122 -0.0011105293 0.00018822902 -0.0006075257 0.00034836167 -0.0010333328 0.001435118 -0.0011782899 -0.0011704791 0.0005383517 -0.0009544726 -0.0010208053 0.001883415 -0.0001544337 0.0011602947 0.00072057534 0.0013887014 -0.0011376329 0.00027072724 -0.00078166684 0.00044062064 0.0013251008 -0.0016100972 6.263438e-05 -0.0013259504 -0.00050310994 0.00035666063 0.0005004174 0.0009051166 0.00029207737 0.001577639 0.00040133233 -0.0010450709 0.00032195443 0.0011228798 0.0010591104 -0.00040638068 1.6470294e-05 -0.0011498786 -0.0014694155 -0.0011809109 -0.00085322233 0.00047441732 -0.0010533537 0.0007993793 -0.0017373192 -0.0007741295 0.0012395539 -0.0012193233 0.00086590345 -0.00035754484 -0.0011575677 -0.00046807164 0.0012960086 -8.805376e-05 0.0007544691 0.0005837163 -0.0005078458 0.0017310341 0.0009891326 -0.0014829087 0.001538097 0.0003359339 0.000878815 -0.00041246766 -0.0013807222 -0.0004675725 0.0008504126 -0.0013424332 0.0005608552 0.00069699675 0.0012219156
wedding -0.0007285719 -0.0011352368 0.00046984336 -0.0013752325 0.000118225376 0.0009684614 6.913167e-05 0.0015132474 0.000621145 -0.0018833546 -0.0013430566 -0.0013882442 0.0006958492 0.00042814645 -0.0015850691 0.00014990699 -0.0009928712 -0.001469344 0.0013527503 -0.0009349711 -0.0014312929 0.00019050586 -0.0013559537 -0.0011031503 0.00047434683 0.0014056524 -0.0010156168 0.0015352992 0.0013642714 0.0008603022 0.0013614851 0.0005636199 0.00036789576 -0.00057536655 -0.00072080846 -0.0015929061 -0.0014249422 0.0014955712 5.306395e-05 0.0013167699 9.7588934e-05 -0.00032576593 0.0011147081 -0.00086841447 -0.0010536457 0.0012173726 -0.00078133366 -0.0014743765 0.00054788764 0.0011021653 -0.0012798456 -0.00089731725 0.0008674612 -0.0010301517 0.0012571868 0.00033327044 0.0014207746 0.0016281444 -0.0011000582 0.0005066297 -9.725678e-05 -0.0014729833 0.0009012165 3.7430316e-05 0.0012623996 0.00023946016 0.00038668042 -2.4307146e-05 0.00038996205 0.0012195932 8.431075e-05 -0.0006235579 0.00013599612 0.00030895157 0.0014249744 -0.0010618937 0.00050944334 0.0005688114 -0.00070440845 0.00084933854 0.0015450872 0.0014963913 -0.001189239 0.0015000792 0.0005632501 -0.0013021322 0.00024172463 9.661602e-05 -0.0015890616 0.0012043556 8.3711086e-05 -0.0010849473 -0.00093154574 -0.0005725288 6.602857e-05 -0.0013184638 0.0006971304 -0.0016393545 0.000105656036 0.0013993302 0.00024638893 0.0012723054 -0.00058369857 -0.0019066725 0.00033709852 0.00097260915 -0.001729682 -0.001684363 -0.0010760927 -0.0014567123 5.752873e-05 0.0008563209 -0.00042790495 -0.0017088165 -0.00019336175 0.0005879936 -0.0013965393 -0.00072060665 0.0010427115 0.00110792 0.0006466587 0.00022676366 0.0007153408 0.00012818855 0.00021487867 -0.00065354217 0.00033791535 0.0012025217 -0.001644278 0.0005694354 -0.0003773089 0.0002594753 0.0014412901 0.00046496812 0.0011369245 0.00062743993 -0.0003418004 -0.00017932612 -0.0006920947 -0.001276723 -1.8955334e-05 0.001388068 0.0011056052 0.0012723244 -0.0010599112 -0.0015011451 -0.0016112683 -4.969651e-05 0.0010780983 -0.0010488647 -0.00048782752 0.00066039077 -6.9103284e-05 -0.001815023 -0.0007148366 0.0008636709 -0.00074343703 0.0016359932 -0.00064004154 -0.00048912555 -0.0009649364 0.00020930811 -0.00088063243 0.0012605737 0.0016562651 0.0005220767 0.0008468735 -0.0018225901 0.00015914401 0.0005600017 0.0011300866 0.0006017119 0.001345954 0.0014851718 -0.00018154277 -0.0007687647 -0.00060929754 0.00092922046 -5.1433093e-05 0.0011826273 -0.0009922783 -0.00092679786 0.0017230144 -0.0007147939 0.0015384277 -0.00090120226 0.0011769471 0.00014043973 -0.00022732724 0.00058408047 -0.0015537916 -0.00040383008 0.00026097492 -0.0002774785 -0.0005424693 -0.0007180212 0.001503893 -0.0013429481 0.0003468775 0.001297383 -0.0013472184 0.0006171229 -0.0010336902 -0.00014284108 -0.000755477 0.00036674459 0.00061042164 0.00014802678 -0.0011480213 0.0011997838 0.00068524084 0.00049923145 -0.0014910673 0.0013794533 -0.00093984423 -0.0013222771 -0.00020613127 -0.0011278769 -0.0005132765 0.00082296954 -0.001217108 0.0015909539 0.0013923845 0.0006789223 0.00013862559 0.0007347193 0.00040110125 -0.0012067399 -0.0009659264 0.0011357607 -0.00073661166 -0.0016040606 0.00022065105 -0.001616072 0.00042075958 0.00033727987 -0.0013115905 -0.00070684904 0.00039190202 -0.0007294482 0.0015033293 0.0018550651 0.0016154818 0.0009794625 -0.0009569007 0.0014159648 0.000886797 -0.0004375222 0.00048738145 5.4351556e-05 -0.0009660514 -0.0014126482 -0.0014389934 0.00022596556 0.001352528 0.0015378615 0.001387625 -2.266436e-05 -0.0010063286 -0.0010924081 -0.000265519 -0.00066206045 -0.00019345364 -0.0009231375 0.00016890305 0.00076581235 -0.0017294519 0.0017035998 -0.0014953505 -0.0013394129 0.0006805618 -0.00030742906 0.0011726988 0.0009016092 -0.00155026 0.00048115206 -0.001523409 0.0014363218 -0.0011364295 -0.0010595806 -0.00042549806 -0.001343589 0.000734986 -0.0007083115 0.0009594489 0.0013018834 0.0008878246 -0.00015735695 0.0010470278 0.0013433103 -0.0014293602 0.0009859604 -0.0006347627 0.0015095356 -0.0015513565 0.0006529497 -0.00084119337 -0.00042163717 0.0008548487 -0.0004564913
nick 0.00072290003 0.00016865913 -0.0013970326 0.0011171674 0.00066888396 0.0003387997 0.00018981582 0.00096085086 0.0014742975 -0.0010776196 -0.00044137362 -0.0009513099 0.0011965077 7.673819e-05 -0.00014720207 -0.0011094359 -0.0017437114 -0.0006501264 -0.001471464 -0.00011327937 -0.0004629529 0.0009714849 -0.0016592293 0.0005101134 0.001267337 -0.0012363191 0.00040555338 0.0014206467 -0.0016852486 -0.0010306571 -8.317293e-05 0.0010824535 -0.00064945366 0.0009299509 -0.0010637862 -0.0012929584 0.0001366366 0.0007530287 0.0010399974 -0.0012533966 -0.0006758634 5.5625937e-05 0.001715701 0.00011464885 0.0012050427 0.001178473 0.00033621542 -0.0014814241 0.0011998932 -0.0014386848 -0.00071377517 -0.00083198573 6.2757063e-06 0.0013996196 -0.00020208128 -0.0014465138 0.0014784439 0.0011801412 -0.00039916232 -0.0001721248 -0.0010391024 0.0016097712 -0.0002488668 -0.0014908181 1.0585159e-05 -0.00025498902 -0.00021946503 -0.00046301217 -0.0015231838 0.0006834387 0.00020195184 0.0010652837 0.000586254 -0.000315612 -0.0005287671 3.9409122e-05 -0.001320313 0.001189785 -0.00029725995 -0.0009894327 0.0016721346 -3.604237e-07 -0.0004582643 -0.0011069813 -0.0013162921 -1.3537878e-05 -0.0005266572 0.00050521543 0.0012337985 -1.1465541e-05 0.00024213911 -0.00033953 0.0013839708 0.0009847102 -6.886697e-05 0.00049871794 0.00012411518 -0.0003546186 -0.00081808073 0.00052861724 -0.0010415515 0.00040916735 -0.001021903 -0.001364468 -0.00075784343 -0.0015200175 -0.0014976016 -0.0015845913 -0.0015595943 -0.0014579659 0.0009316974 -0.00015324153 0.0014418289 0.000900838 -0.00066349143 -0.0016305314 0.0003050315 0.0010215729 0.00023509409 0.00038870584 0.0005921928 0.0006543365 0.00030688115 0.00073557807 0.000112661866 -5.6031156e-05 -5.726627e-05 0.0015032614 -0.00067808985 0.0016588754 0.0015896729 0.0015976899 0.0012967965 -0.0001897333 -0.00043891426 -0.0008406962 -0.0006861749 -0.0008566651 -0.0013325262 -0.00023416162 -0.0011646482 -9.555973e-05 -0.001496434 -0.0014658747 -0.0010928059 0.00032998234 -0.001131395 -0.00087347237 -0.0009362498 -0.00015188518 0.00056476047 -0.0011387292 -0.0014788127 -0.0017383061 0.0015401695 -0.001402285 -0.0014039663 -0.00017477723 -0.0017483586 -0.0007880525 -0.0014403497 -0.0014091136 -0.00043354905 0.0012630132 -0.0007631167 -0.001440151 0.0016219585 0.00018199054 -0.0014247303 0.0005228451 0.0003607336 -0.0013924214 -0.0014010328 -0.0009777665 0.0011444006 0.001074412 -0.0005872576 -0.0015943565 -0.0009840229 -0.0013729826 -8.929164e-05 0.00059760385 -0.0006584735 -0.0006906566 -0.0011026599 0.00151626 -9.648107e-05 6.568666e-05 0.00084955 -0.0013807535 0.0005931181 3.68236e-05 0.00046128855 0.0004720314 0.0015604564 0.00013075516 -0.0016879296 0.0011368296 -0.00030327038 -0.0001619471 -0.00066714233 -0.000851581 -0.0016760838 -0.001906474 -0.00024746187 -1.4238384e-05 -0.0007256961 -0.001302866 0.00086360757 -0.00026966308 -0.0014050734 0.0010308035 3.1964512e-06 -0.0014242063 0.0005976261 -0.0016341212 0.00039040903 -0.0006637368 -0.00060479296 -0.0006762734 0.0005554923 0.00012234622 0.0005800881 0.00022721464 0.0012435253 0.0001743428 0.0012817866 4.6756984e-05 0.0014062427 0.0013682311 -0.0011494278 -0.0013704284 0.000507087 0.0009278989 -2.8993401e-05 0.00044195206 0.0004878974 0.00056150573 0.00088754407 -0.0015397426 -0.000702341 0.00067972887 0.0017502692 0.0007749921 -3.2630545e-05 0.00035352257 -0.00017756657 -0.000102957965 0.00093541254 0.00085489923 -0.0006123766 0.00072183856 0.00014595337 -0.0006866689 0.0002229108 0.00077138195 0.00024449322 -0.00078311784 -0.0015940724 0.0011197979 -0.0003536925 0.0001353782 -0.0008032035 0.00022022796 -0.00044580168 0.00022469815 -0.0011372932 -0.00010256116 -0.0014344909 -0.0011452201 -0.00054385327 -0.00010510498 -0.0004190909 0.00079106353 -0.000108370325 -0.0009122219 0.00074306957 0.00024148327 -0.00037900297 0.0009834962 0.0010670121 -0.0011348617 -0.0002684983 -0.0012952017 -6.1093844e-05 0.0004403992 0.0009262461 0.0012078992 -0.0009220611 -0.0014348526 0.00075355347 -0.000586119 0.000510471 -9.579736e-05 -0.0016882685 0.00012957049 -0.001394063 0.0015121846 6.774023e-05 0.00044126774
year 0.0009902102 -0.0009579861 -0.0006871174 -0.0009744119 0.000575172 0.00040928688 0.00054679275 -0.00093997334 0.0017108541 -0.0013708895 -0.000773958 -0.0012116308 0.0016396864 9.144268e-05 -0.0010317299 0.0005896518 -0.0013505562 0.0011644514 0.0014241047 -3.8407263e-05 -0.0012925561 -0.0016366179 0.00070765725 0.00018396285 -0.00013244836 -0.0016256331 0.00048814013 -0.00089222816 0.0010039018 0.00023899051 0.0003267147 4.527315e-05 0.0015501933 -0.000980323 -0.00015024959 0.00055656774 -0.00046556423 -0.0006396787 -0.0009787076 -0.000619021 0.0010262699 0.00092647964 5.3060437e-05 -0.00080452603 0.0012813349 -0.00011804118 -0.0008765033 0.00046092147 -0.00031083758 -0.0013110264 0.00025868064 0.00046318534 -0.00035136245 0.0006572259 -0.0014233423 0.00067510677 -0.0009099824 0.001599519 0.0011615569 -0.0016072117 0.0006058186 -0.0014496457 -0.00063752756 -0.00047288398 0.00069393264 -0.0001114284 0.001627032 2.3800607e-05 -0.00069897616 -0.0016859936 -0.00074589544 0.00054913317 0.0014680855 0.00043636127 -0.0014650738 -0.0012843828 0.0005384869 -0.0014921402 0.0011486032 -0.0008288226 -0.0014240447 -0.00093669444 0.0014452954 -0.00083639624 3.1017687e-05 -0.0009871094 -0.0013879789 -0.0007275923 -0.001028415 -0.00054136844 -0.001476829 -0.0009131997 0.0011936537 -0.00031307855 0.0011473703 -0.0014729307 0.0010091006 -0.0006536789 0.000121973775 0.0014228703 0.001436028 -0.0003821239 -0.0013216147 -0.000998524 -0.0004857141 -0.0015682582 0.0011416913 -0.0013307733 -0.00087276753 -0.0006167275 -0.00076954387 0.0013656742 0.00071797153 -0.0015079146 -0.00012870037 0.0013214507 0.0005885816 -0.0015993261 -0.00046856288 0.000439244 3.9373896e-05 -0.0006731598 0.00091995444 -2.509406e-06 -0.0003020421 -0.0012750785 0.00093989057 0.000519109 0.0014935678 -0.0004237902 -0.00058477774 -0.0004709486 0.0015978192 -0.0014022546 0.0016298951 -0.0008386164 0.0015218548 0.00079029833 -0.0016485108 0.00021654066 -0.0005965698 -0.00094577053 0.0006224567 0.0014836175 0.0012764467 0.0016541599 -0.00072713546 -0.0007896401 0.0012499163 -0.00067884475 0.0010592202 0.00040555315 -0.0010340762 -0.00020304334 -0.000103282466 0.00010948304 -0.001282706 0.00096350425 -0.00031421307 -0.0016773046 -0.0010101745 0.00093174184 -0.0012448112 -0.0004928543 -0.0005954972 -0.0014075148 0.0012222977 -0.00043922148 0.00041152295 -0.0005718198 0.0005378118 0.0013971502 0.0013892092 0.0012620449 4.865613e-05 0.0015992883 0.00030072164 0.0011542452 0.0014941625 -0.00090136175 0.000129297 -0.00033748656 0.0011581868 0.0004571834 -0.0010868799 0.0002058612 0.00052438886 -0.0014134671 -0.0009089871 -0.00039630278 -0.00039628116 -0.0009096605 -0.0017887553 0.00069659465 0.00023030746 -0.0017101574 -0.0005394802 -0.0013319892 -0.0013717872 -0.0015615745 -0.0001223632 0.00025162747 0.0005486704 1.3646224e-05 0.00082399294 -0.00021028628 0.000688138 -0.00016178135 -0.00022946096 -0.0016365336 -0.0015670317 0.00068141293 -0.00036044704 0.00025844105 -0.0013755988 0.0011425791 -0.000766826 -0.00014433733 -0.0007594614 -0.00097335386 -0.00074238866 -0.001282355 -0.0010617087 -0.0016821122 0.0015362889 0.0013063387 0.0014496273 -0.00058847165 -0.0015843627 -0.0012218193 0.0009941382 -0.0012503468 0.00025762708 8.2800885e-05 0.0012426855 0.00014203192 -0.0005970406 -0.00104389 -0.0001352915 4.237006e-05 -0.00020701747 0.0017430186 -0.0010542277 0.000895575 0.00087636185 -0.00026620456 0.0010264977 -0.0005124155 -0.00014993698 -0.0013814835 0.0012829392 0.00044143363 -0.0016330525 0.0011685281 -0.0012889121 -0.0014092964 0.00061678165 -0.0016940701 -0.00066278613 0.0005765397 0.0005016161 8.74003e-06 -0.0013123741 0.00014906321 0.0007632319 -0.0010308177 -0.0010106534 0.00064290984 -0.0004021415 -0.00093124894 -0.0008647615 0.0012208897 4.335136e-05 0.0003005514 -0.00029424048 -0.001291008 0.0009510188 -0.0016288906 0.0010881063 -0.000682434 0.00091290486 0.0014184777 -0.0009702132 0.00095641776 -0.0016016342 0.0010082496 0.00064810575 7.8056415e-05 0.0002387424 0.0008742039 0.0016027242 -0.0006580438 -0.0010621741 0.0010466464 -7.257947e-05 -0.00080540695 -0.00020137262 0.00084356085 0.0013390892 -0.0003133487
the 0.0012732738 0.00044923436 -0.0012459824 0.00023618157 0.0012018804 0.0016756791 -0.0012428117 -9.341838e-06 0.00076475163 -0.0014580841 -0.00079060096 -0.0016406573 0.0014008143 0.0009067254 -0.00051543664 -0.00016671218 0.0014823078 0.00036740373 0.00012603732 -0.0005457138 0.0015787818 -0.0016977611 -0.00083328964 -0.0013074178 -0.00017636911 -0.00014790843 -0.0012788025 -0.0013010633 0.00067499425 -0.00019277706 0.00094964507 -0.00076448964 0.0014333708 0.0015047975 -8.941873e-05 -0.0011636427 0.00071478635 -0.00016000644 0.00038327987 0.00021956197 0.00019697263 -0.0011008143 0.0002919206 -0.0007960353 -0.0014650946 0.0009153636 -0.0005484122 0.0013755346 -0.0007361305 0.00035534505 0.0009514647 0.0013589425 -0.00045073102 0.00048101286 0.0013824631 0.0015078419 0.0004486766 -0.000633868 0.0016184588 -0.0009900008 0.00054631574 0.000352676 -0.00037960018 -0.0004883457 -0.0005425747 -0.00066033704 -0.00016387354 -0.0007081278 0.0006049051 -0.00089713273 -0.0014421255 0.0013986059 -0.0001609627 0.0004745983 -0.0008905714 0.0005962508 0.0010462645 0.0011312484 0.0005664593 -0.000446397 -0.00074630394 0.001528714 -0.0014068515 0.0004096568 0.0014268713 -0.0006157381 0.0008507172 0.00040739894 0.0009101118 0.00015759742 -0.0005670483 -0.0016549006 0.0005232275 0.0012647734 0.0014804802 0.0011457745 -0.0006394986 -0.0007800426 0.0013905539 -0.0013802528 -0.0012767812 0.0015531756 0.0010997656 0.00077202613 -0.0013778332 -0.0014002994 -0.0016587004 0.0005316189 -0.0011632121 -0.00019961443 5.7861947e-05 0.00066532113 -0.0004561218 -0.0016007953 0.00011062513 -0.0011877216 -0.0007880865 -0.0011845431 -0.00032842506 -0.0011497438 -0.00066901953 -0.0013037914 -0.0015947768 -0.0007438385 0.0014937936 0.0006339743 -0.0014456094 -0.00052683614 0.0007429945 -0.000786378 0.0015259514 0.00063869415 -0.00016437883 -0.00036781398 0.0014819333 -0.0003903324 -0.0007859291 0.00063683273 -0.00027650164 0.000865156 0.0014207109 -0.00060914265 0.001386403 -0.00044826456 0.00057492405 -0.00036650675 -0.0003114147 -0.0006220425 -0.0008744464 -8.1475824e-05 0.00074292015 -0.0012812003 -0.001003108 0.0002609379 0.00079303305 -0.0014897368 -0.00086907885 0.0013030006 -6.200488e-05 -0.00018547397 0.0006658262 -0.00094696315 -0.0005483871 -0.00080588507 -0.0010529596 0.0014195058 0.0011620008 -0.0010831136 -0.00042642184 -0.00093961385 0.0009789341 -4.1099556e-06 -0.00094427605 0.000664768 0.0015634095 -0.0008058418 0.00088561844 0.0011534638 -0.0015551359 0.0012915672 0.0010981391 -0.00016725768 -0.0007050398 0.0017071587 0.0010045768 -0.0012219723 0.0006656058 -0.00041015795 0.00088978594 -0.0010836001 0.0011324302 0.00041633603 -0.00032628968 -0.0015692469 -0.000108849155 -0.0010813823 0.0012282629 0.00034621227 -6.416647e-05 0.0001614331 -0.0008167262 -0.0014347937 0.00095958036 -0.0011881872 0.0003145172 1.345556e-05 -6.3012085e-05 0.00097104016 0.0017291686 0.0013601239 -0.00035381812 -0.0011594892 0.0010100957 0.00014271248 0.0002686995 -0.00026206614 -0.001774976 0.0003147595 0.00036125773 -0.0002656463 -0.0007510637 -0.0003150559 0.0009882253 -0.00038441955 0.0011593383 -0.00040691512 0.0003332429 0.0016203282 -0.00048779405 5.458467e-05 0.001713518 0.0014130643 1.4482092e-05 -0.0017766423 -0.00072164676 0.0014899347 0.0006455208 -0.0007160133 -0.0010738579 1.2702216e-05 0.00051737705 0.000539397 0.001253662 -0.0012326731 0.0011929203 0.0005419389 0.00053914014 -0.0003312779 -0.00021321267 -0.00095434947 0.001042129 0.0012670753 0.00072505797 -0.0003858394 -0.0004909394 0.0008436148 0.00016602119 -0.0013618743 0.00095591584 -0.0015363455 0.0001897671 0.00083694205 -0.00069683173 -2.5689138e-05 -0.0010416051 -0.0013366147 -0.0018025009 0.0015674458 -0.0016698102 0.00071820116 0.0006891111 -0.00050901115 -0.0016105764 0.00083128567 -0.0014812582 -0.0008719392 0.0015162652 -0.00021505225 1.9119641e-05 -0.0003758621 0.0007462966 0.00049888366 -0.00021748319 0.0011550495 0.0014452353 2.5848174e-05 -0.0009210686 0.0001666332 0.0015442717 -0.0004634907 -0.0016258634 -0.0009531688 -0.00013721586 -0.00065317954 0.001481151 0.001369256 -0.00021520081 3.388641e-05 0.0005275506 0.00084256
couple 0.001060022 0.0009975858 -0.00031933983 -0.001637378 0.0015018794 0.0015631148 0.0016421882 -0.0010846729 0.0018084241 6.719451e-05 0.00080127124 -0.0013860598 -0.00084879645 0.00048731294 0.0006177169 0.0007116827 0.0007745753 0.00117797 -7.570813e-05 -0.0008454404 -0.0014247731 -0.00055655884 0.0012518035 -0.001514701 0.0007646022 0.0004383037 -0.0014010499 -0.0003606388 3.3966808e-05 -0.0006210318 0.0014805617 -0.0013189533 -0.0011149261 0.0012843482 -0.0013442952 0.001209396 0.0011422437 0.0015496785 0.0016988639 -0.0008096818 0.00032986313 0.0015132228 0.0005411868 -0.0002113186 -0.00051764335 -0.00066662923 -0.001350651 0.00046615212 -0.00090427796 -0.00071000203 -0.0006954505 -0.0005587917 0.0016120772 -0.0017714311 0.0014039057 0.001193691 -0.000956829 0.00052337017 -0.0012561816 -0.00025864757 0.0004027855 -0.0002198669 0.0015439093 0.000536166 0.0012555991 0.001195638 0.0009924418 0.000711124 0.0017390585 0.001575356 -0.00034486657 -0.00046423325 -0.0013301279 0.0017271204 -0.0007258646 0.0011690251 0.0020306262 -0.0013557742 0.00021591788 -0.0016440474 0.0012146424 0.0008268733 -9.3930605e-05 0.0013935522 0.0005779561 0.0015090074 0.0009942877 0.0003181942 -0.000867858 0.0014774618 0.0012472143 -0.0013277959 0.00086807634 0.0013954928 0.0011599498 0.0011490259 0.0012294762 -0.0008524079 -0.00017459573 -0.0011473168 0.0013585158 0.0015856014 -0.0010904816 0.00030073425 0.0012341437 4.502586e-05 -0.0011707129 -0.0016022939 -0.0014374816 0.00035537436 0.0007916638 0.0005562617 0.001354613 0.00024569815 0.0011842453 0.00021686056 -0.0012764253 0.00014789424 -0.00027727347 0.0007782392 0.00070289697 0.00016001821 -7.755441e-05 -9.709008e-05 0.00090501487 0.0007948782 0.00016657163 0.0013013808 -0.0003799846 0.0006023721 0.0002530035 -0.00047551768 -0.0004964907 0.00066836545 -0.0006162317 -0.00014161822 -0.0011832919 0.0004973685 0.0010092289 0.0011494925 -0.0011587241 2.2570275e-05 0.0010978366 0.00073747715 -6.248953e-05 0.0015033643 -0.0006475393 0.0012743482 0.0014420971 -0.0009318576 -0.0009696701 0.0007490633 -0.0001527996 -0.0004534353 -6.934799e-06 -0.0014646722 -0.0004889935 -0.0014900457 -0.0014498327 0.00051182864 -0.000654405 0.0003120204 -0.0010190794 0.0016820924 0.00084098685 0.0007611956 -0.001445523 -0.0016271442 -0.0008150838 -0.0011656147 0.0012049049 -0.0010175395 0.0013814489 0.0013028301 -0.00025691677 0.0012642511 -0.0008068362 -0.00144043 0.0016050885 -0.0015361488 -0.0009579613 -0.00049116265 0.0007822241 -0.0012280992 -0.0010325955 -0.0012402077 0.0012849269 0.00030785415 -0.0006793366 -0.00078408694 -0.0010934613 0.00142154 0.001106724 -0.001406901 0.00057279627 0.0012651838 -0.0013400976 0.00015800934 0.00052949873 0.0017063713 -0.0011493439 -0.0008923595 0.0006120067 -0.0010302764 0.0007944061 -0.0015423596 0.0011132883 -0.0004600733 -0.0008735944 -6.322918e-05 -0.0005940584 -0.0012754272 -0.0010657525 -0.0010986526 0.0009041084 0.0012541313 0.0014408549 -0.0013517629 0.0011785756 -0.00022176345 0.0014020889 0.0011911757 0.001626448 -0.0011547357 0.0013613563 0.0010100902 -0.0009878065 0.00061465986 0.0015871093 -0.00019810656 0.00041739596 -0.0007580087 0.00052947283 -0.0012408186 7.634238e-05 0.0008040805 -0.00048663246 0.0015204619 0.00032225062 -0.0013927339 0.00061127706 0.0011601744 0.0007228832 0.00028907292 -0.001079992 0.00090312096 0.0006690097 -0.00035235842 -0.00053440215 0.0014051195 -0.00048053882 0.00078016176 -0.0014434108 -0.0016976491 -0.0013624212 -0.0015171672 0.00049009407 -0.00058862445 0.0016338541 -0.00067509344 0.0011116574 0.0011344904 0.00045039933 0.0015811011 -0.00013133638 0.0014014337 -0.00014616165 0.00014237703 0.0008132333 -0.0008724127 0.0008595231 0.0005743144 -0.0014914487 -0.0009134899 0.0007463624 -0.0004303795 0.001451074 -0.0016427758 0.00024894634 0.00039149288 -0.00029986844 0.00062481244 0.0012771982 0.0009152264 0.0006466927 0.0010883803 0.0005951802 -0.0002659797 -0.00069337967 -0.00071058905 0.00028067877 0.0004790989 -0.00011203822 0.00048623778 -0.0003490575 -0.0011010031 -0.000989799 0.0011674385 -0.001459826 0.0014008513
priyanka 9.250327e-05 -0.0003902421 0.00033550768 0.0010838774 0.00020715104 -0.00041936056 0.0012690085 -1.0042224e-05 0.0014197966 0.0006814199 0.00070973503 -2.49212e-05 0.000659688 -0.0015581377 -0.001601557 -0.0014669967 0.0007854239 0.00032953016 -0.0008696701 -0.0004994721 0.0010969089 -0.00078519335 -0.0007663296 -0.0009853196 -0.0009948483 0.0005458195 7.0886745e-05 0.0004904501 0.000107187894 -0.000669899 0.0012111901 -0.0004836213 0.0005055041 0.0011280717 0.0007097983 0.00095091475 0.0013973755 0.00067829585 0.000534251 -0.0003610287 -0.0012569879 0.0013072173 -0.00010586034 0.0003921225 0.0011748831 -0.00083409727 0.00041798333 0.0013637486 0.00031775687 -0.0011380754 0.0012646596 -0.0012620342 -0.00085908844 0.00027632262 0.0013416095 -0.0010008592 -0.00013331596 0.0005471302 -1.6691214e-05 -0.0007255191 4.274723e-05 -3.302389e-05 -0.0015888349 0.000811803 -0.00094117876 0.00044509192 -1.0977068e-05 -0.0013829966 0.001393231 -0.0009451477 -0.00092665525 0.0011790339 -0.001591234 0.00098614 -0.00037618488 -0.0015158594 0.0006497798 -0.0015602419 -0.0012058435 -0.00096342416 -0.0012439304 -6.6303727e-07 -0.0007406516 0.00062917353 0.0010087258 0.0012710533 -0.0013658308 -0.0016226562 -4.89543e-05 0.0005621881 -0.0014600768 0.0010830368 0.0010095214 0.00043253816 -0.0013696225 -0.0001245596 -0.00075144455 -0.0007855421 -0.001408935 0.00077779806 -0.00038030738 0.000881357 0.0016060293 -0.0014206576 -3.3797405e-05 0.00093409995 -0.0011481773 -0.00087215466 -0.0007023942 -0.0012160982 0.0008242813 0.00139837 -0.0015750495 -0.00072106865 0.00016888068 0.0010373783 -0.00036052175 -6.952468e-05 -0.0007137723 0.0006387271 -0.00029341227 0.00025675364 -0.0004669676 0.0012120137 -0.0006268338 0.0008310542 -0.00027440887 0.0010131134 0.000567409 -0.0006702152 -0.0005924807 -1.569618e-05 -0.00011769215 0.0007708206 8.197687e-05 0.0015673904 0.0008584444 0.0016015869 0.0009389913 0.0016545487 -0.0004022048 -0.0005738014 0.0015708164 -0.00077304407 -0.00014523436 0.0007735788 0.0009313245 -0.0002989635 0.0014296204 -0.0015120576 -0.0011948827 0.0012995026 -0.0011855849 -0.0018456581 0.00017572788 -0.001248018 0.0015698025 -0.0016310097 -0.0012877344 0.00012819194 -0.00080757984 -0.0009293662 -0.0016420037 0.0011794668 0.0012001501 4.8359754e-05 0.00025582977 0.0009644428 -0.0005584604 0.000671512 -0.00041685268 -0.0015213473 7.5820746e-05 0.0005974413 0.0007603274 0.0014006585 0.0011972367 -0.0005523877 -0.0015804232 0.0008791154 -0.0010571993 -0.00070400955 0.000996189 -0.00030176455 -0.0012117685 0.00013598868 0.0015460815 0.001295223 -0.0002011569 0.0008368964 0.0004246021 -0.0008425281 -0.0015995429 1.7039203e-05 -0.00097584404 -0.0017420897 0.0005405476 0.00019270704 -0.0006542838 0.00087286293 -0.0012611293 0.0015326809 4.779649e-05 -0.0008450214 -0.00023698984 0.0010000698 0.0014622811 0.0002721138 0.0016492634 0.0014426797 -0.0015803115 0.0011253661 -0.0007355995 -0.00076599605 0.00013819862 -0.00091791875 -0.000980347 0.0013581183 0.0007147783 -0.0015810272 0.00043737504 -0.0011142767 0.0005954329 -0.0007401425 -0.00086179574 -0.00048125334 0.001326163 0.00060645986 -7.553564e-05 -0.0010306818 0.00022668378 -0.00015240337 -0.0012168624 -0.0012417937 -0.00061956147 -0.00045632696 -0.0016114473 0.0002873785 0.0007193809 -0.0005298529 -0.00019812454 0.0014740544 0.0013954892 -0.0016556768 -0.0012914246 0.0016356622 0.0013643631 -7.586763e-06 -0.00040581968 -0.000117549615 -0.00029501104 0.00012941223 -2.6709153e-05 -0.0009550534 -0.0012726528 -0.00015725089 -0.00038467368 0.0015215224 -0.00062312256 -7.596377e-05 -0.0014796642 0.00023918331 0.00038403872 -0.00045312275 0.0009187388 8.445687e-05 0.00021956458 -0.00065230555 -0.0004698829 -0.0013780958 -0.00040875337 -0.0015834204 -0.0014991759 0.00069650135 -0.001013365 -0.00060226367 -0.0016524311 -0.0014864252 -0.0012232147 -0.00035617838 -0.00019070036 -0.0005754643 0.0013124552 0.000138985 0.00087940576 -0.00092216145 -0.0015269765 0.0010118728 0.00087605056 -0.0014997271 0.0014371615 0.0016698636 0.0007479675 0.00067825284 -0.0011863587 -0.0012533771 0.00021636019 -0.00092107215 -0.0001761718 -0.0005145044
padukone 0.0010038536 0.0003038966 -0.00069882756 -0.0009006654 0.00041470435 0.0010862746 0.0008950106 0.0001576409 -0.00016774207 -0.001630401 0.00096644985 0.0012105985 -0.00041167357 -0.0010844078 -0.0014720837 -0.0011639531 7.516471e-05 -5.7759655e-05 -0.001013021 0.0009556853 0.0011500143 -0.00080613326 7.30702e-05 -0.00047426124 -0.001221231 0.0013102435 0.0016682254 -0.00046929304 0.000594648 -0.00011159642 0.0007367284 0.0014094854 0.0012109106 -0.0014339285 -0.0016128251 0.0011292688 5.5201945e-05 -0.0008017736 -0.00034821508 -0.000314877 -0.0013549175 -0.0015831032 0.0010167524 -0.0010660747 -0.0012398087 -0.00029510196 -0.0013827295 0.0011843106 0.0009969649 0.00017121002 9.766681e-05 0.0011363672 0.0015049982 -0.00065288774 -0.001322448 -0.0004133583 -0.0012559667 0.0014685466 0.0015327398 -0.0004426171 -0.0013409681 -0.0010018192 -0.00045106056 0.0016390588 0.0015390643 0.00013856163 0.0011227124 0.001494285 0.0009971504 -0.0010537276 -0.001494368 -0.001112182 -0.0013081527 0.0013434736 0.0003841789 -0.0005768117 0.00088578067 0.00069998606 -0.0011906208 -0.00096666644 -0.00082642375 -0.0006018624 0.0011859336 -0.00044517367 0.0011309023 0.0011736515 -0.00038259334 0.00023499553 0.00025525992 0.0016604703 0.0012949776 -0.00066849514 0.00015324826 -0.0010718942 0.0008234123 0.0011835372 -0.00026245575 -0.00095596485 0.0006889989 -0.00056047813 -0.0010040911 -0.001305349 -0.0010318859 -0.0017520421 0.0012812272 -0.0009720386 -0.00042959428 0.0004950923 0.00011962118 0.00096916896 -0.0016609585 -0.0010425914 -0.0015851673 -0.0006326733 0.0009596157 0.0009856696 -0.00029690037 -0.0005508338 -0.0014379212 -0.0009591782 3.4467525e-05 0.0010330778 -0.0013310062 -0.0013721097 -0.0015030721 -0.00074593694 0.00068319216 0.0007438734 -0.00013071034 -0.00083499186 -0.00151502 -0.0014320745 0.00090244674 0.0013478445 0.000639588 0.00048625344 5.86673e-05 -0.0009521228 0.00088373723 0.00058654736 -7.087916e-05 0.00088298065 -0.0012910381 -0.0007957994 0.0015363776 -0.0016230049 0.00029771848 0.0015316181 0.00084834005 -0.0012139278 0.00040511836 0.00072344317 -0.0006328914 0.00026748868 -0.0011999417 4.7797883e-05 -0.00016309918 0.001748736 -0.0017158437 -0.0014529516 -0.0004173562 0.00069722073 8.912966e-05 0.00086250616 0.00017747612 0.0002870485 0.0009919117 0.0002510018 -0.0005313321 0.0013175961 0.0011974938 -0.00048799152 0.001425534 -0.0012716001 0.0010061021 -0.0012599812 -0.0011598815 0.0007769269 0.0015332042 -0.0014814854 -5.7227662e-05 -0.0008796294 -0.0008602923 -0.0007607531 0.0001553384 -0.00023383005 0.001720142 -0.0015846449 -0.0016539592 0.0006501257 -0.00017671556 -0.000683306 0.00044172382 0.000939619 -0.0016218681 0.0009314525 9.250857e-05 -0.00091120676 0.0005622399 0.00047888586 0.0015008316 -0.000975792 -0.0013097959 0.0011054769 0.0013212434 -0.00013006793 -0.0005776847 0.0012246914 0.0016794639 -0.0005003038 0.0004107005 -0.0013634707 -0.0002790544 0.0015629696 0.0008752397 0.0015421618 0.0011471995 -0.0012970722 -0.00042394633 -0.0009147945 -0.001030564 4.902055e-07 -0.00087010063 -6.552165e-05 -0.0016400089 0.0017193486 -2.045549e-05 -0.0008029248 0.00040080922 -0.00065634114 -0.00047006906 0.0015127724 0.0006601939 -0.0012493958 -0.0013438306 0.00058149674 -0.00020960167 0.0012313544 0.00047920347 -9.728364e-05 -0.0008484354 0.0009060459 -0.00016833903 -0.0008986468 -0.0009754888 -0.0011348743 -0.0010080421 -0.00024242174 -0.000910307 0.001185728 -0.00076309894 -0.0015577943 -0.0010042171 0.00024437677 0.0005252313 0.001583313 0.00059455744 -0.0015884265 0.00012321628 -0.00026523232 0.001013945 -0.0014085744 -0.0014612712 0.00067371334 -0.00084622664 -0.00018669978 -1.5660064e-05 0.0006113929 0.0016131039 -0.00075064134 -0.00077471643 0.0009094211 -0.0007112793 0.000679708 -0.0006707529 -0.00023326014 0.000100050274 -0.0017133835 -0.001531515 -0.00024565216 0.00031485336 0.00072170474 0.0014745464 0.00059548323 -0.00020154858 0.00021031774 -0.0012691267 -3.1459298e-05 0.0005583943 0.00014966674 -0.00011594422 -0.0011711795 0.0004530547 0.0016182073 0.0010574543 -0.0010627867 0.00063904613 0.0015902224 0.00047184507 0.0013413759
one -0.00077092194 -0.0010817599 -0.0008300205 0.001357132 -0.0011286627 -0.00067989674 0.001221985 0.00017764239 0.00090640236 -0.0013349635 0.00033743682 -0.00042569367 0.0010227605 0.0005967839 -0.0011814308 0.00030338636 -0.00091195764 -0.0012374556 -0.00088971487 -9.79699e-05 0.00067233626 -0.0008784041 -0.0012754123 0.0002283131 0.00021871008 -0.0015519912 -0.0013203197 -0.0003439214 -0.00081921235 -0.0003831686 -0.00028480293 0.000885833 0.00068588427 0.00050857384 -0.0012869092 0.0010350463 0.0005598864 0.00024097135 0.00095625187 -0.0016235445 0.0013893271 0.0003227513 -3.6385703e-05 -0.0006459822 -2.6224152e-05 0.0007502523 8.122761e-05 -0.0014343424 -0.00094009016 0.001038376 0.00096658553 -0.0012435806 0.0006682002 0.0009971265 0.00010816855 0.00076976547 0.0006257719 0.0006271161 -0.0013038488 0.0014132633 -0.000978111 -0.0005684048 -0.00035428244 -0.0005502341 -0.0009855779 -0.000116810676 0.0011909048 0.0014369617 0.00032150067 0.0007135857 0.0006142911 0.0007273281 -0.0011289745 -0.00040871467 -0.0011579287 -0.00062775257 0.0012087137 3.941567e-05 -0.0011708756 3.6465495e-05 -0.0014514604 -0.0009933304 0.00010984567 0.00013017151 -0.0015113597 0.00020835668 -0.00016700086 -0.001309188 0.0008980113 0.0013388855 -0.0010683887 -0.000425225 0.0014729935 -0.00091544836 0.00075673993 -0.00093937945 -0.0012422963 0.0005464772 -0.0013778144 0.0006760641 0.00092708704 0.00026308946 0.0010515897 -0.0016705547 0.0007621685 -0.001521517 -0.0014810591 -0.0011541405 -0.0002157232 -0.0004963345 -0.0013194501 0.00050171587 0.00058469834 0.00041941117 -0.00014933858 0.00113803 -0.0013219973 -0.0015319886 0.0011077669 -4.7483103e-05 0.0002636198 0.0005632799 0.0012003682 0.0010193 -0.0010915954 -0.0002626058 0.00088083727 0.000136773 0.00010197705 0.00058193627 0.0012093598 0.0008926661 0.0010799607 -0.0012017648 -0.0007430457 0.0005685447 0.00029143706 0.0011497831 0.00062466675 -0.0011718374 0.000673925 0.0015607013 0.00018797892 0.00034097992 -0.0006781375 -0.0014480249 -0.00036371118 -0.001059866 0.0011174453 0.00029070972 -0.0015822669 -0.0006947137 -0.00013898732 0.0004660942 0.0008343147 -2.1643596e-05 -0.0010442531 0.0005343514 -0.0016864933 -5.7808444e-05 0.0016051532 0.0005179329 9.233033e-05 0.00046636377 0.00035441056 0.0014053072 0.00029166532 0.0010480011 -0.0011964457 0.0011100081 0.0013229267 -0.0014907357 -0.00029111846 6.126449e-05 -0.00033830572 0.0014931456 0.0005044072 -0.0002789321 0.0014753811 -0.0015689414 0.0010787973 -0.00036986684 -0.00076576613 0.0017221568 0.00075367856 0.0010847882 -0.0002090159 -0.00010740525 0.0016011455 5.5308647e-05 0.0013959835 0.00042287816 0.00029656003 0.00043020127 0.0006218569 0.00096894 -0.0013363142 -3.2617354e-06 0.0011634745 0.00022796943 0.0010062808 -0.000121811085 0.0010359928 -0.0016819421 -0.0011833535 -6.25484e-05 -0.001378948 0.0012279812 0.0017206909 0.00064939976 7.568505e-05 0.0003511736 0.00050974573 -7.401491e-05 0.0014659882 0.0006518099 0.0011908995 -0.0012538922 0.0011925153 -0.001484229 0.00012903297 -0.0011924857 0.0012343279 -0.00048587762 0.0010005055 -0.00087980554 0.0018060349 0.000363242 -1.8447934e-05 0.00043376602 0.00017070823 -0.0008970401 0.0010644449 0.0012633706 -0.001552416 4.416115e-05 -0.0011626129 0.0014596791 -0.0013046971 0.00018763193 -0.0011108329 6.372587e-05 0.00024147307 0.0013887811 0.0011524773 0.00041322768 -0.0014326904 0.0016375226 0.00067050575 0.0008297909 -0.0013341715 -0.0007807684 -0.00084818 0.0007977306 -0.00094953686 0.0005379682 0.0008932692 -0.0016283387 -0.0009791995 0.0012291794 0.0011237295 -0.0009934768 -0.00079781644 0.0007559858 0.0013876562 0.00027353677 -0.00012606637 -0.00091075577 0.00044180863 0.0010147786 0.0012896769 0.0008830125 0.00042900213 0.0016092574 -0.0013323197 0.00089400046 0.0008515729 0.0006314458 -3.6433856e-05 -0.0012532705 -0.0016307742 0.00057137175 -0.00074391393 0.0014813765 -0.0005098425 -0.00041868436 0.00064646173 -1.28983975e-05 0.00051879004 0.0004621549 -0.001272826 -0.0011236211 -0.0002704768 -0.0013971732 -0.00022182157 -0.00020913107 0.00075875147 -4.6938283e-05 -0.0014188855 0.00064777926
two -0.0008918982 0.00011248311 -0.0013221363 -0.00059547933 -3.314839e-05 -0.0013362488 -0.0008287805 -0.0007863356 0.0009868284 -0.00014499835 -0.0014464533 -0.000670798 0.00070628425 -0.0010748424 -0.001799488 0.0014265908 -0.0016338766 -0.0013232839 0.0014147301 0.0011493522 -0.00050218095 0.0007318484 -0.0012684154 -0.0013077148 0.001263702 0.0010092884 0.0010257828 0.00012281434 -0.0013065229 -0.0013566657 -0.00022720489 -0.0012296876 -0.00062585453 -0.0013149579 -0.0014231099 -0.0011052099 -0.0007015279 6.310798e-05 0.00045453123 -0.0017255617 0.0012060445 -0.00045751073 0.0007657323 0.0012610912 -0.0008188564 -0.0005634816 -0.0004254643 0.0004907299 -0.001459788 -0.0009893612 0.00032417526 0.00039557024 -0.00037276966 -0.0012440542 -0.0014756017 -0.00017388425 -7.7256074e-05 -0.0007827586 -0.0010370886 0.0015563039 0.0014435862 -0.0007554687 -0.0002555435 -0.0008897174 0.000691276 -0.000968542 0.0006325431 -0.00092396745 -0.00045143405 0.0015552174 -1.2946447e-05 0.00059917674 -0.0013287831 -0.00074787374 -0.0006667852 -0.0014948703 0.0009356378 -0.0011890345 -0.0002878516 -0.00020041052 -0.0005598834 0.0011581787 -7.496311e-05 0.0012157006 -0.00089197827 0.0014521561 0.0012300253 -0.00036286408 -0.001460054 -0.0006387755 -0.00086611835 -0.0006536222 0.00024911878 -0.00042626768 -0.0009655366 0.0010162848 4.696806e-05 -0.001326749 -0.0003266427 0.00029525335 -0.0014280236 -0.00014029993 0.0011835848 -0.0014849432 0.00017110766 -0.0002720758 -0.00016307282 -0.00073645887 -0.00020592459 0.0011257537 0.0013421123 -0.0007155454 -0.001042677 0.0011448441 0.0014720113 -0.00087108294 -0.0006421582 -0.0010041631 -0.000995177 0.001051448 0.0012773052 0.0018071285 -0.0004604896 -0.001470527 -0.0014240971 0.0016299624 -0.0001594497 8.7152766e-05 -0.0014730201 -5.248998e-05 0.00082349667 0.00030016009 -0.0011304021 0.00034652787 -0.0005917365 0.0007178887 0.0003821674 0.0006654789 8.322889e-05 -0.0016261056 0.001277529 -0.0014969893 0.0012931667 -0.0009930427 0.001274545 0.0010083781 0.00031427245 -0.00030511187 -0.0014100794 0.0013030722 0.0012271482 0.0015943564 -0.00013308776 0.000115807146 0.001646523 0.0010905903 0.0007359042 -0.001254158 0.0003922121 0.0015822004 0.000104541614 -0.0016112375 0.0013509111 0.001209657 0.0010450765 0.0012483064 -0.0013224971 -0.001642609 0.0011524659 -0.000105899235 0.00037000174 1.8872277e-05 0.001158975 0.00082954083 0.00057416904 -0.0008657048 -0.0012155073 0.0014320984 -0.00051406684 -0.00093308324 -0.0011699013 0.00052294275 7.768937e-05 0.00043659948 -0.0014748392 0.0014504611 0.0012348966 0.0004859471 0.0014525192 0.0012909706 -0.0011445516 -0.0014072882 -0.0010668788 0.00042390745 -0.00017288481 -0.0001699265 4.8807804e-05 -0.00026675774 0.0014999732 -0.0010236613 0.00074353226 0.0006237348 0.00049041334 0.00020629475 -0.00014207615 -0.0015671776 -0.0014757124 0.00068515673 -0.00065145514 -0.0009860257 -0.0008456271 0.00036117432 -0.0005379963 0.0008166448 -0.0010632299 0.0011517192 0.0004888223 8.502652e-05 0.001207127 0.0007378462 -6.881855e-06 1.23184e-05 -0.0010995334 -0.00028449512 0.0004577061 -0.00076493307 0.0016118046 0.00018331088 0.0011274638 -0.0012977641 0.0012216164 -0.00093475473 -0.0004520687 -0.0010212346 0.0012129482 -0.00041396858 0.0013926037 -0.00013761102 -0.0011910549 -0.0002476941 6.449084e-05 0.0012872866 -0.001460294 -0.00087039854 0.0012825606 -0.00021504823 0.001547775 -0.0009922058 -0.0013400553 0.0010532857 -0.0017282724 -0.0015280975 0.00019914116 0.0004732092 0.0016040092 0.00017615447 -0.00017648004 0.0012310277 -0.0014489342 -0.0011394477 0.00042396667 0.0005522797 -0.0004814365 0.00011914025 -0.0012056032 -0.0013830768 -0.0015494926 0.0013938597 0.0011080649 0.0005285778 -0.0012390341 0.00039797244 0.00062226807 0.00016433543 -0.0009755557 -0.0015954502 0.00076452695 0.0006885014 0.0011308595 -0.000536742 -0.0010926859 -0.0008943792 -0.00059134775 -0.0008588271 -0.00010889031 0.00030189657 0.00019244316 0.0008861761 0.001431132 -0.0012345404 -0.00046235297 -0.0011360808 0.0006408035 0.0015661542 0.0013622325 -0.0005955698 -0.00027947186 0.000973321 -0.0007388669 -0.0013990055
knot 0.0010207063 -0.0016336067 0.0003718559 -0.0010087067 0.0006020632 0.0014077249 0.00017388484 -0.0009194664 0.0011363768 -0.00091860024 -0.0005258893 -0.0003968801 0.0015388328 0.00038476588 0.0006269406 -0.001326787 0.0010284253 -0.00026595645 0.0011837212 -0.000907843 0.00097383145 -0.0008744951 0.0002991961 0.0013137158 -0.0011766854 0.00039510784 0.0015904963 0.00051522686 0.00081304903 -0.0014429848 -0.00071573997 0.00036615095 -0.00080576114 0.00074185804 0.0013227282 0.0014738806 -0.0010194294 -0.000818524 -0.0005798905 -0.00075064076 -0.00058789476 0.0013074956 0.0008985756 -0.000404472 0.0011196348 -0.00034600578 0.0012087807 0.001425753 -0.00057224574 -0.0012054731 0.00075320917 0.0013946068 -8.500862e-06 -0.00023724466 0.00045924154 -0.0009023938 0.0009088868 -0.00061445305 0.0009591337 0.0007169649 -0.00037150344 -0.00012439635 0.0011421443 -0.00056549395 -0.001391513 0.000563053 0.0001324719 1.6915286e-05 0.00088964583 0.00163644 -0.001128896 -0.0008629588 -0.0005980986 -0.00040206657 0.0016599193 -0.0016424807 -0.001371872 0.001055055 -0.0001582935 0.0012715879 0.001165268 -0.00051419536 0.0013651905 -4.8139773e-05 -0.0007246232 0.0015459991 0.0015770656 -0.0011114327 -0.0007869848 0.0013321528 0.00010719504 -0.001685954 -0.001529527 -0.00010704823 0.0002512564 0.0006338418 -0.00033127176 0.0008658083 0.0009768982 0.00014777336 -0.0010785899 0.0011358437 0.00049503613 -0.0016712792 -0.0012706273 0.0013405143 0.00026353734 -0.0009351999 0.0015427489 -0.0012163889 -0.00038049638 4.607375e-05 -0.00040613912 0.00023701669 0.0007521545 0.00122571 -0.0010465785 -0.00024624905 -0.001239479 -0.001552912 -0.0014302551 0.000885562 0.0014239996 -0.0010302461 0.00056967855 -0.0010293097 -0.0006636999 0.00036357951 4.5839373e-05 -0.0004037974 -0.00022907334 0.00062848924 -0.001271662 0.0016442908 -0.0012882064 0.0005095745 -0.00018059764 -0.00047220732 0.0015473763 -0.0010033955 0.00075531134 0.0012924467 0.00022360942 -0.0012881634 -0.0014293208 -0.0010452652 -0.0016371628 -0.00043643758 -0.0006741139 0.0011149867 0.00013476452 -0.0008813656 0.0011081113 0.00026337444 -4.524849e-05 -0.0010994641 -0.00028680678 -0.00017605777 -0.0015423386 0.00075852807 -0.00019064109 0.0012178757 -0.00065678696 0.00075422256 -0.00028893456 -0.0013392143 -0.00054047303 -0.0015801651 -0.000822209 0.00082926685 0.00014702318 -0.0009751335 -0.0006242022 -0.001093078 -0.00074821664 0.0014315846 -0.001585982 -0.0006352306 0.0010109872 0.001029701 -0.00061221287 0.0011976374 -0.0010187 -0.0010143893 0.0006384381 8.214046e-05 -0.0005259929 0.0003027842 8.4078514e-05 -2.6758584e-05 -0.001083541 0.00015613704 -0.001458568 0.0011250634 0.0011223332 0.00029487986 0.0007759325 6.145041e-05 0.0011181802 0.0016893697 0.0013148679 0.0006270911 -0.00050037017 -0.0010241849 -0.0005161781 -0.001311238 -0.0006379119 -0.00057092455 0.00054654357 -0.000310482 0.0005601377 0.0013880541 -0.00062405324 -0.0008003657 0.0010482119 -0.0013056378 -0.00018600708 -0.0015398791 0.00081668777 0.00062908867 0.0006537286 0.00030871315 0.0007491748 -0.0013749786 0.0003950006 0.000121451776 0.0015247395 0.00085629587 0.0012927132 -3.9768405e-05 0.0012956555 0.0012143095 -0.00017195467 0.0013135832 -0.00084420876 0.00075020053 0.0014520321 -0.0006778221 0.0006152363 0.0010850716 -0.0013582811 0.0008841323 -7.8645215e-05 -8.044742e-05 -0.0007952738 0.00030071993 -0.00059662515 0.00083406596 -0.0016375754 -0.0010597443 3.531237e-05 0.0004672488 0.0009664111 -0.0012595286 -0.0004537553 -0.0011320037 -0.0009093138 -0.00092342333 -0.0013172361 -0.00014403221 -0.0005305423 0.0003674783 -0.0010518738 -0.00029010724 -0.0015991061 -0.00074876903 0.0010503094 0.0008475485 0.0008721779 -0.0006328844 0.00086035626 0.00045055483 -0.0009792207 -0.0015060736 -0.0008528324 0.0003515424 0.00019734637 -2.3840184e-05 0.0011074716 0.0013065768 0.00097118324 0.00039714697 -0.00091029354 -0.0007355645 -8.626094e-05 -0.0011843393 0.0003514523 0.00028070377 0.0005106159 -0.0011571601 -0.0013246333 0.00039785806 -0.00051902235 -0.0002744795 0.0010878802 -0.00024825914 0.00027001934 0.0010838428 0.0015896531 -0.0002722043
picture 0.0013186089 -0.0003951261 0.0011615221 0.00082723936 0.00024776283 -0.00034034773 0.0001570523 -0.00040514406 -2.0347514e-05 0.00023296534 -0.00024307624 0.00020324484 0.00071953645 -0.0018229168 -0.00096273527 -0.0006044207 0.00097618636 -7.363582e-05 0.000115157396 0.0015236131 0.0008775944 -0.0010123902 -0.00078633736 0.0014025953 0.00036248134 0.001136175 0.0016898786 -0.0012138523 -0.0012894227 -0.00096393906 0.0009683148 0.0011188483 0.00027784752 0.0014156442 -0.00057963456 -0.0010650933 -0.0014675243 -0.0005371125 -0.0014311142 -0.001831778 0.0004068109 -0.00069406355 0.0012296947 0.00094049657 0.0014398008 0.0015827005 -0.001326649 0.0012930116 0.0016175398 -0.000864192 0.0012099604 0.00086657127 0.0012794086 0.00033064454 0.0010615133 0.00093416625 0.00085746974 0.0005261369 -0.00020584284 -0.00096831826 -0.0002857333 0.0015275825 -0.0012770917 -0.00065535016 -0.0009247439 0.00083866157 0.00018749437 -0.0004628665 0.00029495964 0.0014220561 -0.001662185 0.0007556587 0.0008347674 -0.001119593 8.886088e-05 -0.001091853 0.0002097596 -0.0013424833 0.00020695273 -2.7276037e-05 0.0015242653 0.0016927312 0.0015425251 -0.0005522516 -0.00049204525 -0.00081891887 -0.0008285885 -0.0007745241 0.00014939449 -6.163157e-05 0.0010211156 -0.0006764439 0.0009848765 5.4302578e-05 -0.0006070022 -0.00070349267 0.00023809358 -0.0010997612 0.0014133175 -0.00096709386 6.87982e-07 0.00060907187 0.0003741171 -0.0011066023 -0.00092644535 0.000295917 -0.00044149504 0.0005568695 -0.001184538 -0.0004970312 -0.0015053716 -0.00040236823 -0.0014244458 -2.9637165e-05 -0.0016743325 -0.001681686 -0.00048821743 -0.0010090284 0.0005677691 -0.0015724684 0.0001410156 0.0017527788 -0.00035971677 0.00083150045 0.0012719389 0.0012745587 -0.0009725546 0.0010675282 9.666908e-05 0.0012432049 -0.000674461 0.00030239258 0.0008332975 -0.00019425506 0.00034714563 0.0003794405 -5.0220686e-05 0.0014628712 0.0016030848 -0.0016376596 0.00014483438 0.00029257053 -0.0012467818 -2.0670948e-05 0.0009028105 -0.0011665589 0.0005924799 0.0015255407 0.0016887832 -0.0010252304 0.00041156285 -0.00056183565 0.00044104896 -0.00034224518 0.0008303168 0.0014223985 -0.0005978879 -0.0006508967 7.513855e-05 -0.00053945655 -0.00105234 0.00054779253 -0.0011801803 7.9483274e-05 0.0011876952 -0.0010103447 -0.0012080722 -0.0010338681 0.0014748211 -0.0002751184 0.00080179004 -0.0010967725 -6.664243e-05 0.00059135025 -0.0008968412 0.0007782686 -0.000454012 0.00042568537 -0.0004050937 -0.0013501719 -0.001624173 0.0015177251 0.00021295578 0.00016130654 0.00052710564 -0.00053764 0.0015972739 -0.00045206703 -0.00064267963 -0.0005520621 -0.0013436181 -0.0015339772 -0.00014390617 -1.8717761e-05 0.00032352287 -0.0013604804 -0.0014287491 0.0007728226 -0.00046902843 -0.00066492363 0.0015843963 0.0009889279 0.0009843223 -0.0009938518 0.0005466235 -0.00029360104 0.00011130255 0.0010583479 0.0016915046 0.0012224761 -3.816329e-05 -0.0013078058 0.0014294563 -0.00056498824 2.112202e-05 0.0014641407 -0.0010026473 0.0015876467 0.001472726 0.0009111317 0.0014997302 -0.0011786742 -0.0013608237 -0.0016807145 0.00070851715 0.0016405407 0.00016171258 0.00046935413 -0.00075152924 0.0005962547 0.0005603678 0.0006289349 0.0003946899 -0.00048472598 0.00061441015 -0.0013551858 -0.0009368664 0.0010139615 -0.0005091997 -0.00091323204 0.0012920231 -6.324762e-05 -0.00067760935 -0.0012712225 0.00074796175 0.0011185565 -0.0009055779 -0.00029312726 -0.0010195118 -0.0004426833 -0.001488212 0.0015548865 -0.00022954214 0.0003603581 0.00075537275 0.00021594882 0.0014346563 -0.0013011107 0.0017338049 0.0005001654 -0.0010622729 0.0010766832 -0.00012641036 -0.000838671 -0.00015141269 0.0013651999 -0.00074527884 -0.00089882856 -0.00059064396 0.00035529872 0.0013255273 -0.0003423442 -5.9102673e-05 -0.0015635496 -0.0012886596 0.00042432218 -0.0017204108 0.00029778655 -0.0016528263 0.00039466145 0.0012350739 -0.0005134524 -0.00040200076 -0.00088205707 -0.0002018659 0.0007857263 -0.0010156647 0.00060380646 -0.0013327339 0.0016571062 -0.00045826175 -0.0006399182 0.00035189732 0.0013700955 -0.0012136092 -0.00049116224 -0.0016268651 9.9048295e-05 0.00017460228 0.0006156893
said 0.0007464495 0.00045132282 -0.0005876739 0.0011421912 0.0013139483 -0.0015105638 0.0016239814 0.0013729428 0.001625179 -0.00080367347 -0.00027817342 0.000119019795 0.0014809303 -0.00161914 -4.7584403e-05 -0.0009093025 -0.0016519146 -4.149878e-05 -0.0006258259 0.00057559053 0.0012266609 -0.0013762496 0.00047088228 -0.0012274476 -8.974585e-05 -0.0009007032 -0.0008828547 0.0015106072 -0.00026289313 0.00078023033 -0.0010952218 0.0016413499 -0.001603306 0.0010851746 -0.0012091547 0.00036439602 -0.0010563912 -0.00041033566 -0.00025108067 -0.0016942063 -0.0010669676 -0.0011852357 0.00019508568 -0.0010452473 0.00074708567 -3.1908225e-05 0.00021474616 0.00058461254 0.0011728535 -0.00159933 -0.00039943657 -0.00032853908 0.00072137977 -0.0006611661 0.00037025908 9.178237e-05 1.350919e-05 -0.00058676576 0.0002853189 0.0001665683 -0.0012965484 3.1842035e-05 -0.00079247344 0.00039755486 0.00024007319 -0.000694463 0.001249262 0.0008496525 0.0007120012 -0.0011336145 -0.0017967969 0.0007244942 -0.00024659015 0.000706928 0.0008928193 -0.001581839 0.00034615144 0.000117062125 -0.0013429264 0.00081233686 0.00061083265 -0.000959783 0.0013520212 0.0008209236 0.0016739572 -0.00028316546 -0.00085861085 -0.0010552006 0.0013856367 -0.0014071724 0.00078782963 0.0006989568 0.0017423879 -0.0006828956 -0.00046645832 0.0013901653 0.0008151378 -0.0010857399 -0.0011223867 -0.00023493724 -0.0014937819 -0.0010071809 -4.967502e-05 -0.000577138 -0.001474527 5.2664538e-05 -0.0016540872 -0.0014634562 0.0009889049 6.612756e-05 0.0010687371 -0.00041877208 -0.0009326857 -0.00030651115 -0.0012740651 -0.00032419103 -0.0010474301 0.0014220696 0.0010456924 2.1461985e-05 -0.00039621425 0.0016833827 -0.0005875062 0.0014039852 -0.00059409474 -0.0011739131 -0.0014898818 0.0017323705 -0.0007909449 -0.0010937988 -0.0006527935 -0.0013083677 0.0004979314 0.001484825 0.001593862 0.00073924137 -0.00030099895 -0.0014644493 -0.0013825977 0.0011555577 0.00014808132 -0.00036189918 0.0016202728 -0.0017128502 -0.0011588403 0.0003851768 -0.0007896326 -0.000637231 -0.00013402531 0.00040219876 0.00043417752 0.0007786493 -0.0014256074 -0.0009493328 0.00086142146 0.00060349173 0.00039480472 0.001536507 -0.0014048362 -0.0011404245 0.0007033757 -0.00123347 -0.0007616756 0.0006657008 -0.0012197917 6.502983e-05 -0.0009048273 -0.0016685362 0.0010674942 -0.00031494562 0.0007571665 0.0002460215 -0.0012339765 0.0012228877 -0.00152527 0.0017877868 -0.0015799649 -0.00028057833 0.0009021302 -0.00025173716 0.0006860422 0.001617913 -0.00041776686 -0.0010340825 -0.0015275137 4.0221385e-05 -0.00033598277 -7.8745245e-05 0.0010453155 0.0015390066 0.0012281167 0.00042548095 -0.0006440404 0.00035072103 0.00037333055 -0.000831034 -0.0009088374 -0.00013326785 0.0012831694 -0.00035910652 0.0016818199 -0.0007995907 -0.0014356762 -0.00011664741 -0.0013871666 -0.0014427571 0.0013860365 -0.0006278545 0.00051543897 -0.00030849094 0.0014854271 -0.001392741 -0.0016444318 -0.0016557561 0.0010936056 0.0008217713 0.00037656174 -0.00040889523 -0.0010908492 -0.00023265296 0.0011362885 0.0014647419 -0.00058014056 -0.0013009157 0.00055021106 -0.0013816276 -6.86015e-05 0.0013271164 -0.00080708583 0.0011966778 0.0015551933 0.0011444754 -0.00060399086 -0.00037695363 0.00065108883 0.0005146384 0.0008269089 0.00094729866 -4.687542e-05 0.00154436 0.0001008784 -0.00057623105 -0.00015091478 0.0013459795 -0.00017570551 0.0009384953 -0.001360222 -0.0013530089 0.001717343 -0.0017354358 0.0013567967 0.00038784265 0.0015903652 6.877422e-06 -3.5091336e-05 0.0004475062 8.4429485e-05 -0.00067454315 0.0013023514 0.0006637 0.0005255337 0.0010044285 0.0014177213 0.00014385942 0.00070087117 0.000927787 0.0013393718 0.0015288246 0.00015818025 0.0005769731 0.00092532946 -0.0008106804 0.0014170759 -0.00018096068 -0.00087238156 0.0013643921 -0.0006698234 -0.0006668067 -0.000118153024 0.00013659106 -0.0014520773 -0.0012866266 -0.0011391867 0.0015549943 -0.0004491019 0.0003257059 0.00047854066 0.000113770104 -0.0014488988 -3.397863e-05 0.0012178725 0.0012604784 0.00042995161 -0.00094987423 -0.00033731118 -0.0013891429 0.00016155155 0.0015702714 0.00015317649 0.000628728
singh 0.0010836617 0.00015145722 -0.00087431615 0.0012317321 -0.0011280421 -0.0013124278 0.000691905 -0.0012304398 -0.00032678738 0.0013484948 0.0012385657 0.00093766325 0.0016021221 -0.0010572919 0.00022979939 0.000933814 -0.0012807114 -0.00019983541 -0.00043513862 -0.00062446896 -0.00072640134 -0.0010722863 0.0014216464 -0.00059493753 0.00013012488 0.001530398 0.00037281532 0.00021216676 -0.00035741206 -0.0009637274 -0.0007933958 -0.00028694057 -0.00073785 -0.00089818914 0.00067108124 -0.00030020194 0.00079282303 0.000585054 1.4888094e-05 -0.0014225049 0.0013435318 0.0014349619 -0.0012838087 0.00063257373 -0.0016113846 -0.0009477049 -0.00036829966 0.0014461667 -0.001383374 -0.00052634795 0.001443197 -0.0007905798 -0.00037319487 -0.0012133975 -0.00029310517 -0.0017131816 -0.00086255104 0.00055369205 -9.716623e-06 0.0009995032 0.001578109 -0.0014257117 0.0011063956 -0.0010603887 -0.0015608409 0.00031446552 0.001395579 -0.0016925762 -4.4757566e-05 -0.0012223109 0.0012269297 0.0015693724 -0.00048745231 -0.00081379997 0.00021122799 -0.0008643062 0.00058295205 -0.0014221028 -0.00012368463 -0.00026863176 4.7153117e-05 -0.0014065434 0.00048315438 0.0017794705 0.0014343424 0.00047394077 0.0006626402 0.001411625 -0.0016506845 0.00020243476 0.0006593233 0.0011643517 0.0011606772 -0.0010674206 0.0011979778 0.0016445057 -0.0011231883 -0.0004934047 -0.00013813966 0.00030953434 -0.00047758545 0.0010558523 0.00057578227 -0.0018116487 -0.0006095607 0.0016599746 -0.0001736717 0.00012871313 8.2234634e-05 0.000827219 -0.0001343833 0.0015725998 -0.0012595251 0.00048340144 -0.0013226588 -0.00095567823 -0.00037783285 -0.0014130039 -0.0009718598 0.00072536594 -0.00094964553 0.000617337 0.0003068468 0.0016238185 -0.0009134013 -0.0004071641 0.0015483755 0.00020564803 0.0009212135 0.00080883806 0.0013488736 0.00032871566 0.0010480692 0.0012667179 0.0015926611 0.00061123766 -0.00018459496 0.0015745142 -0.00049578707 0.00030759888 0.0011742027 -7.540311e-05 0.0010555943 0.00096570933 -0.00051195105 0.0014665695 0.0005411118 0.00016700086 -0.0007829367 7.7206736e-05 0.0012765689 0.0006096707 0.0010156457 0.0006666956 0.001200569 0.00032479208 0.0014705744 -0.000265025 -0.0006439021 0.0004436356 -0.00044275087 -0.0007291179 -0.001152418 0.0007705526 -0.0007953128 0.00094745675 0.0008819387 -0.0013839402 0.0012510993 -0.0011824816 -0.0014247451 0.0011009055 -0.0007160816 -5.5970242e-05 0.0016672051 0.0011367165 -0.0013796397 0.00020509066 -0.0007022471 0.0010283769 -0.00051457126 -0.0002958396 0.0012798766 0.0013663832 0.0007539235 0.0005314024 0.0004344829 0.0012580748 -0.0016255673 -0.0006598801 8.951746e-05 0.001015963 0.0011416328 0.0011669406 -0.0015439963 0.001217574 0.0015473083 0.0007124783 0.00078407954 0.001386216 0.0016443288 -0.00040138932 0.0011584879 -0.00062475697 -0.0013633606 0.0014839747 0.0014599154 -0.00010560587 -0.00034933325 -0.00045320726 -0.0009811048 -0.001351835 0.0014775072 -6.217356e-05 0.0012644595 -0.0006138793 0.00027273563 0.00095970597 -0.00032564718 -0.00022310246 -0.0007877926 0.00045588546 -1.2983404e-05 -0.0015317425 -0.00026971698 -0.0011041728 0.0015903942 0.0012031824 0.0004891758 -0.0008341232 0.0010447247 -0.0010175189 -0.00090496667 -0.0010621228 -0.0009773469 -0.00108612 0.0005672949 0.00068427174 0.0014687313 5.5699824e-05 0.0014071603 0.00032072866 -0.0011289661 0.0011897403 0.0009793172 0.00017511923 0.00097036624 0.0012617061 -0.0015001954 0.0008771038 -0.0005416689 0.00046412734 0.0014802957 -0.0010739104 -0.0012859958 0.0015086841 -0.0006177201 0.0011580924 -0.00048687038 -0.0013070474 -2.4212464e-05 3.3030068e-05 -0.0014945031 -0.0007623087 0.0014863072 0.0005817511 -0.0005974969 -0.0013244891 -0.001468012 -0.00041801418 0.0012297847 0.00028311237 -0.0011535248 0.00045698206 0.00045266352 -0.00024281217 0.0007235924 -0.0016600167 -0.00039877676 0.0010191704 -0.0015539963 0.00040400695 -0.000312282 -0.0011289278 -0.00086716283 -0.0014133349 0.0012360483 -0.0013029656 0.00015655586 -0.00041885226 -2.090358e-05 0.00010168272 0.0002969742 -0.0013463713 0.00083257066 0.0004891106 0.00081776694 -0.0014491805 0.00033540526 7.908856e-05
jonas -0.00044649423 0.0012760443 -0.00077427126 6.8146175e-05 0.0014630761 0.0007085145 0.0016416096 -0.0007775655 0.001644141 0.00015604275 -0.0016432015 0.0015756768 -0.0008407075 0.00090663147 -0.00063327455 0.00067860616 0.0013407288 -0.00069644966 0.0013337013 0.0014418216 -0.0011601805 -0.00030597113 0.0012018849 -0.00053084915 0.00080455316 -0.0012679123 0.001678133 0.0016877883 -8.142387e-06 0.00079622486 -0.00035151953 -0.001373268 -0.001367803 -0.00057158136 -0.0011176537 -0.0005620188 0.0011643269 0.0010754275 -0.0008580204 -0.0006287401 -0.0007911378 0.0014771238 -0.0005384332 -0.0014680953 -0.0015533622 0.0012386949 -0.00045986928 0.0014399161 -0.0007297351 0.0004084351 -0.00061362487 0.0006118945 -0.0009691668 -0.0009016418 -0.0013244748 0.0010175372 0.0013944521 -0.0009853774 0.0015891333 0.0013284028 -0.0015339749 -0.00022272806 -0.0012800315 0.0013475717 -0.0014528555 0.0006337092 -0.0005357381 0.0011198135 0.0013333561 0.001053546 -0.00055523816 0.0017499408 0.00091692817 -8.4393185e-05 0.001472088 -0.0008959567 0.0019222265 0.0009930556 -8.767722e-05 -0.0011839387 0.0016436916 -0.0010384208 0.0012821497 0.0008456432 0.0013399463 -0.00010638321 -0.0008153302 0.0015785737 -0.0013237841 0.0006508404 -0.0017133397 -0.0015513316 -0.00091430434 -0.00090876344 -0.00061781256 0.00030694096 -0.0005453997 0.00025452932 -0.00022093931 0.0014222206 -0.0010070433 -0.001369727 0.00019396808 0.00021117863 0.00065188913 0.00012894046 -0.0014732669 -0.0009800692 0.00025092298 0.0013229549 -0.0013948027 -0.00024278725 -0.0016119252 0.001114929 -0.0003848616 -0.0003056279 -0.0005584075 0.0012224696 -0.0015039829 -0.0010766403 0.0014532353 0.0011239887 -0.00070976175 -0.0006062725 0.00070503145 -0.00023322366 0.0013948159 -2.5619102e-05 -0.0006454907 0.00017603362 0.00067788793 -0.00013590003 -0.0009903169 0.0005723426 0.0003264653 -0.00016690194 0.0014442508 0.0010685405 -0.00057014363 -0.0014587797 -0.0017061183 -0.0016527711 -0.0012252936 7.129529e-05 -0.0014411275 -0.00081387913 0.0007057773 0.00089723937 -0.0010123642 0.0013689079 -0.0007540822 0.0017291646 0.00043382958 0.00011333738 0.0015207313 0.0017129802 0.001293098 -0.0010614477 0.00026371024 0.0007398165 0.00035009332 0.00021708834 -0.0003213235 -0.00047730535 -0.0015376245 0.00092857704 -0.0007305321 0.0015356252 0.0014625941 -0.0011767916 0.000484055 0.0016154601 0.0011204726 0.0003702966 0.00093893876 0.0016338723 -0.00095286674 0.0006452041 0.0003734575 -0.0006890564 0.0007989502 -0.00025438902 0.0013215005 0.0015344721 0.00019684201 0.0008408476 0.0014597534 -0.0013617848 0.00076827867 0.00076659396 -0.0013070115 -0.0016288123 0.00082282297 -0.00013775646 0.00045526083 -0.0016618904 0.0010050762 -0.0005747725 6.127272e-05 0.0014525244 -0.00092194445 -0.0015727363 -0.000537436 -0.0012223875 -0.0011346989 0.00032880533 0.0007845096 -9.4349765e-05 0.0011763101 0.0006792787 -0.0015457482 0.0016513133 0.0009843212 3.8346167e-05 0.0009814245 -0.00071530265 0.00086429477 -1.3210019e-05 -0.0011117309 0.0012561061 0.00015882203 -0.00090357655 0.0012827893 0.0010418487 -0.0012155741 0.0014763654 0.0013513787 0.00015191518 -0.001019621 -0.0010717289 -9.1655624e-05 0.0010072992 -0.0013488282 0.0005303487 0.0006666905 0.0003872863 0.0015029275 -7.3666946e-05 0.0005794437 -0.0014721869 0.0007554003 0.00041757603 5.07658e-05 -0.00047872806 -0.00073925714 -0.0007025094 -0.0006265879 0.0006911599 7.001756e-06 -0.0013469345 0.00090085703 0.0015832802 -1.7568713e-05 0.0006780235 -0.0015611345 0.00045528548 -0.0014124186 -6.0254417e-05 -0.0009989046 -0.00030881053 -0.00061817677 0.00066429103 -0.00016904969 -0.0004908507 0.00025892752 -0.0015702492 0.0010634883 0.0003353184 -0.0006066736 0.0008984793 -0.00013549179 0.00082723633 -0.0005546627 -0.0009790247 -0.0003207919 -0.00024056528 0.00031936145 -8.170138e-05 -1.2516489e-06 -0.0016640138 -0.0005881997 -0.0010695548 0.0015811021 0.00017641051 -0.00024257101 0.0005601175 0.0012740903 -0.00126673 0.0012793955 0.0009186672 -0.0005703843 -0.00061721774 0.0010548332 -0.00015549849 0.00018165019 -0.00029514972 -0.0006797868 0.0006614142 0.000540725 0.00043289264
chopra -0.0010393716 -0.0004141905 0.0011398153 -0.00039803577 -0.0003953365 -0.0015203938 0.0002994504 0.00077066594 -0.00033368712 -0.0013193323 -0.00071048125 -0.000677307 0.00032927856 -0.0011924043 -0.0011495604 0.0008303796 0.00056175917 -0.00036487952 -0.0011807083 -0.00019899828 0.0015066462 -0.00057621783 -0.0003055604 -0.0006163208 0.0011013389 -0.0012981568 -0.00032588767 0.00034416164 5.7447432e-06 -0.0002823187 -0.000119904085 0.001295009 -0.00026447384 -0.0010073428 0.00032762738 0.0012136223 0.0011662315 -0.0011703108 0.00032807034 -0.0015570245 -0.0012950739 -0.00025571452 0.0015455224 0.00088876236 -0.001109791 0.0011648574 -0.0008007659 0.00086646836 -0.00043571598 0.0010094224 0.0002536653 0.0003728161 0.000108729255 0.000739376 0.00041872228 -0.00022993659 0.0016412145 -0.0013715613 8.820643e-05 -0.00061798573 -0.00016311005 2.4494248e-05 -0.00066662295 -0.00072733045 -0.00083192496 0.00025624098 0.00037210432 0.00055348955 -0.00035061446 -0.0012894225 0.0009064181 0.0015377299 -0.0010505731 -0.0012868954 -0.0015319051 -0.0008420969 0.0015774277 -0.0012445264 0.0003352882 0.0012136054 -0.00035251683 -0.00050288864 0.0009236344 -0.00053873524 -0.00020469695 0.00042800012 -0.00034555298 0.0015089412 -0.0015129785 -0.0005567055 -0.00047925315 -0.0010604771 0.00040517005 -0.0007720402 4.1992316e-05 -0.00037503484 0.0012986154 0.0009303858 -0.00029031915 3.224501e-05 0.0007900648 0.0012909216 0.0016688012 0.00062556163 -0.00069614337 0.0015509352 -0.0016036103 -0.000770848 0.0012412436 0.00017073266 -0.00016054646 -0.00045904823 0.0007994957 -0.0015724287 -0.00091884506 -0.0014291623 -0.00054198236 -0.00068238756 0.0006592125 0.00041768077 0.0007956821 6.114451e-05 -0.0003360384 0.0011369536 0.00038649866 0.00022683904 0.0016266346 -0.0013612143 0.00033305708 -0.0009481329 -0.0011883883 -7.481565e-05 -0.00023836437 0.00076561974 0.0012513523 9.477047e-05 -0.0010264097 -0.0010246579 -0.0010140856 0.0010041578 0.00042501083 0.0015131893 -0.0005084955 0.00076843286 -0.00022746231 0.0010500851 -0.00060848636 0.0015171489 -0.0008964619 -0.0006827991 -0.0005322511 0.00012453651 -0.0013557959 -0.0018315597 -0.001556379 0.00068166177 0.0014183084 -0.001576439 0.0003824613 0.00048878527 0.00097353535 -0.0005185356 -0.00032223074 0.0013078975 -0.0016154902 0.0016518865 -0.00090855925 -0.00023723263 -0.0014432528 -0.00031665605 -0.00056348834 0.0009025121 -0.00014723613 0.0013574109 0.0015044465 0.00045031498 0.000726968 0.00028047725 -0.0010759811 0.00020656969 0.0005539765 -0.00032214457 0.00048646296 0.0012972647 -0.0014576372 -0.0012727276 0.0010073602 0.0015700195 0.0007960664 -0.0003678161 0.0009975253 0.00063175487 -0.0010894886 0.0009461385 0.00043753162 0.00030839894 -0.000967898 -0.0007141089 -0.00017384846 -0.0014004562 0.0013210366 -0.0004314124 0.00081910857 -0.0018427675 -0.0016184059 -0.0001997373 0.00025958146 -0.0016070115 -0.0012947246 0.0010986532 0.0012937986 -0.0015457772 -0.0013090078 -0.0013622836 0.0011476097 0.0005855939 -0.001681794 -0.0008365968 0.00041630492 0.0009207031 -0.00045222862 0.0002916289 -0.0013373154 -0.00055127864 0.0012080716 0.0016224051 -0.0010204683 0.0005285558 -0.00022937512 -0.00014891129 3.729532e-05 -0.0014131439 0.0014097559 -0.0005309479 -0.00086912594 0.0010152142 0.00022961663 -0.0012631767 -0.00064066617 -0.0012523521 0.0010876139 0.0008830505 -0.00059572654 0.00030635603 0.0003458249 -9.876159e-07 0.00010368912 1.5791817e-05 -0.00095116644 -0.0007186396 0.00083071546 -0.0010682434 -0.0011189664 0.001566123 -0.0004635346 0.00083950505 0.00025659337 -0.00076644565 0.0014834736 -0.0015144151 0.0003869351 0.0013494572 -0.0015192014 -0.00048531187 0.0008349967 -0.000138152 -0.00074099464 -0.0006292942 -0.0015051366 -0.0005728598 -1.1953299e-05 0.00027981403 -0.0015464672 0.00082171115 -0.0012003381 -0.0011065027 -0.00036082327 -0.00058371667 0.00032154625 -0.0014888638 -0.0009321525 0.0015337522 -0.0005284809 -0.00035629573 0.000857767 -0.00058805017 0.001038717 -0.0006507159 -0.00063150947 0.000712968 -0.00059783395 0.00048037712 -0.00013866239 0.00036022018 7.7064644e-05 -0.000555761 -0.00095327455 -0.0011361276 0.0004753063 -0.000106607346
relationship 0.00015873816 0.0013072519 -0.0014774539 -0.0016524221 0.0009785785 0.0012071773 0.0016540708 0.00082159025 -0.0014205333 0.0006483722 0.001411335 0.0010187161 0.0005705361 -8.105644e-05 0.0012309721 0.000947213 -0.0016926555 0.0010425337 0.0012885886 0.00040356672 -0.0015358558 -0.0006970875 -0.0010703662 0.000722738 -0.0008037462 -0.00017289497 -0.00040585047 0.0015911373 0.0009306401 -0.0009744966 -0.0011757188 -0.0011229346 -0.0014245235 -0.00078590313 0.0015530823 -0.00045641113 -0.0014661739 -0.0015007909 -0.0013441866 -0.0002054221 0.001641153 -0.00077562 0.0007290873 -0.0010222242 0.0012303911 0.0012407533 0.0009221181 0.0009541997 -0.00027045136 -0.00034598593 0.0009777066 0.0008017299 -0.0016396515 -0.0017840639 -4.1438576e-05 0.0009490279 -0.0008328751 0.001078338 0.0012583726 -0.00020620936 -0.0014428833 0.00064168015 -8.055034e-05 -0.0013876786 7.9573394e-05 -0.00012601257 -0.0004976451 0.0003153107 -0.00031931154 0.0016354714 0.00019615804 -0.00092005805 0.0011862159 -0.0010140575 -0.0012350947 -0.00092428306 0.0006915003 -0.0010976673 -0.0011165253 0.00036276176 -0.0006436193 0.0015869252 -0.0004958524 0.0016158392 0.0006322671 0.0016135956 -0.00051168294 0.0014280822 0.0011805143 0.0010606596 -0.00072010834 0.0011468737 0.0009092607 0.0010274001 -0.0018176049 -0.0009682094 -0.0015409576 0.0006968499 4.281496e-05 0.00017694497 -0.00013881773 -0.0016311937 -0.0016697216 0.00044315547 -0.0011356117 0.0007314038 0.0013062367 -0.0010743028 0.00023594654 -0.0014765315 -0.00075926475 -0.00050478533 -0.00023440269 -0.0013200898 -0.0011727208 -0.0017524054 -0.0009102915 -0.00063267216 -0.001044689 0.0011388413 0.0012265857 -0.00020900248 0.00012656143 -0.0013583475 0.0005038423 0.0007682313 -0.001484173 -0.001090313 -0.0005825978 -0.001414189 -0.0007170103 -0.00039568017 0.00073292165 8.2465864e-05 0.00028380813 -0.0012515283 0.0013649832 9.814312e-05 -0.0011328392 0.0013096033 -0.001003289 -0.00019611997 -0.0013129051 -0.001070039 -0.0011289549 0.00087949703 0.0010148368 -1.7951374e-05 0.0008926428 0.00061467616 0.00074145984 0.00050898717 -0.0017427464 4.101155e-05 -0.00027619945 -0.0010351273 0.0015383922 -0.0010110986 0.0010211535 2.216393e-05 0.00023319972 -0.0006148161 -0.0010528278 -0.00040937503 0.0011516591 -0.0008811295 -0.0005508019 0.00033131213 0.0012665779 0.0011568471 -0.00010416035 -0.001411905 -0.00056464213 0.0016048437 0.001228359 0.0012750005 -0.00075224997 -0.00136539 -0.00010784268 0.0015498898 -0.0014071815 -0.0002920829 0.0005186694 0.001818646 0.00019879917 0.0005438561 0.0006303344 0.001139877 0.00093678286 0.0009849931 0.0002992219 -0.0015911821 -0.0010505264 -0.0013347641 -0.0012316878 -0.0003109093 0.0005454665 0.00021694916 -0.00036386453 -0.00014174792 0.0011149348 -0.0017015802 -0.001153784 -0.0012041865 -0.0006624361 -0.0017085023 0.0005704499 -0.0012866157 0.00091069634 0.0011898566 -0.0016562934 0.0009879807 -0.0017076781 -0.0006132281 -0.0014044517 0.0012668754 -0.00048575652 0.0011391902 0.0009513153 0.00088185986 0.00041541416 -0.0012515117 -0.001181748 -0.0011963575 -0.0006208657 0.0010781466 0.0015565511 0.001352774 0.0003226977 -0.0014305428 0.0014733515 -0.00032890265 0.0015259994 -0.0011671546 0.0007725022 0.0011065193 -0.0014592798 0.0008151601 0.0015822747 0.00043725807 0.00023226195 0.0003937903 0.0009869398 -0.0015780019 0.001090583 -0.0005170223 -0.000477832 0.00019499043 -0.0015957387 0.000958611 -0.001402004 -0.00034506875 0.0015799801 0.00051922677 -0.00036091392 0.0010988292 -0.00038091096 -0.0006779826 -0.00062626065 -0.0012672227 -0.0008108769 0.0015694434 -0.0012562737 -0.0014784099 4.4831188e-05 -0.0011112364 -0.0017170651 -0.00032221945 -0.0011428545 -2.9848761e-05 0.0005315553 -0.00095954956 0.0011251811 -0.0006796663 -0.0009821281 0.001194514 -0.0015092697 -0.0005100706 -0.00088342 0.0008213788 0.00097374065 -0.0005885559 -0.001607597 0.0005209608 -0.0014094869 0.001516361 -0.00065645605 0.0015355473 0.00044749968 -0.0009567026 0.0015955989 0.0008778892 0.00024853094 -1.448999e-05 0.0010864483 -9.4443436e-05 -0.0008161156 -0.00071179756 0.0010290919 0.0012073743
new -0.00083796604 -0.0012663659 0.0015015756 -0.0015857158 0.0014706405 -0.00026251396 -0.0001059605 0.00045095538 -0.0009608334 -0.00016279955 0.001060015 -0.00021596567 -0.0011136391 -0.0013787089 -0.0008960036 -0.0015621695 0.00013646016 0.0011758474 0.0013911691 -0.0006987551 -0.00044725245 -0.0015399236 -0.0014920216 -0.0008701302 -0.0012423062 -0.0013767197 -0.0006946279 -0.0015375825 -0.00019654457 7.762701e-05 0.001313335 0.0006408926 0.0016121157 0.0008111268 -5.1630355e-05 0.00020550747 -0.00011432371 0.0002331695 1.8571505e-05 -0.00085536233 0.0006379261 -0.0014532437 -0.00085039274 0.0011850214 5.326887e-05 0.0011508364 -0.0017375094 0.00048482377 -0.0014496901 0.0006819558 -0.001226723 0.00035661508 0.0016584232 8.6037635e-06 -0.0014410457 0.00070031703 -0.0005409604 -0.0008130584 0.0013935771 0.0009320253 0.00033751133 -0.0016146783 -0.0010887455 0.00038700516 0.00036120866 -0.0010534975 -0.0003281592 -0.0008546267 7.864263e-05 -6.7827925e-05 0.00045877567 -0.00017664424 0.00038980044 -0.0011515681 -0.00010157682 -0.0008894662 -0.0008072732 -0.00073156104 0.00040865323 -0.0006726528 0.0014739309 0.0011812894 -0.0007823121 0.0012669923 -0.00056784187 0.0013193195 0.001047539 0.00013837965 -0.0005020474 -0.00057562365 -0.0017595383 -8.5341584e-05 0.00089911884 -0.0014752608 -0.0007904358 -0.001279917 -0.0015660058 0.000100095036 0.0009794806 0.0004950121 -0.0010407735 0.0015918843 0.00049667596 -0.0019367439 -0.0012203899 -2.4762869e-05 -0.0007729672 -0.00030270978 -0.0012556429 0.0006420376 0.0011078562 0.0007513013 -0.0011721681 -0.00050520746 0.00026930455 -0.0011495858 -0.00057802384 0.0005726743 0.0005370167 -0.00010596531 -0.00061278604 0.0008834897 -0.00021394675 -0.0007339838 0.00036845595 -9.924104e-06 0.00014904312 0.0017232535 -6.564252e-05 -0.000114889284 -0.0015817442 -0.0011204564 -0.00090132956 0.00072284474 -0.0011544222 0.0006782411 0.0008454217 0.00044193267 0.0015813067 0.0014425016 -0.0006477883 -0.0014136662 0.00044173803 0.0014785314 -0.000105202 0.00037973042 0.0016634822 -0.0013122435 -0.0004036914 -0.00016982557 0.00010657398 0.0003013377 0.0005383269 -0.0014175957 0.0014489221 -0.00095941534 0.0003383226 0.0014418118 -0.00071060896 -0.0004237745 -0.00071318046 -0.0005896855 0.0005680462 -0.0008889318 0.0014609155 0.0006731842 -0.001289809 -0.0017133291 0.0004857408 0.0012157133 0.00068975205 -0.0012040308 -0.00047695517 0.0007206422 0.0004561038 -0.00073473 -7.7410274e-05 0.001597197 -0.0015931699 -0.0011695776 -0.0013919057 0.0006374988 -0.00043346995 0.0015128227 0.000114197894 0.0013747953 0.0013111738 -0.0005762301 -0.001014464 -0.00024234435 0.0013843623 -0.00067995593 0.0010335647 0.00090714626 -0.0013067164 0.0008806181 0.0009105862 0.00011133206 0.00015698382 -0.0012769639 0.0004291146 0.0010212001 6.870916e-05 -0.0019129568 0.0016369413 -0.0005925754 -0.00031688358 0.0016147671 -0.0013849124 0.0014069723 0.0008022542 0.0015086705 -0.00037496872 0.0003203172 -0.00042973572 -0.00070194143 0.0010117522 0.00035102115 0.0006995686 -0.0011135625 0.00018897845 0.0005658065 -0.00088326115 0.001493093 -0.00010703767 0.000384912 9.700153e-05 0.0013753767 0.0005933784 -8.696444e-05 -0.00037010547 -0.0013199216 -0.00079381897 0.00020172072 0.00097207434 -0.001219562 0.0010080722 0.0007508254 -0.001436898 0.0017516187 0.0011633246 0.0004031515 0.00130216 -0.00037847148 6.089903e-05 -0.0010903319 0.00036956285 -0.0003108061 -0.00024184732 -0.00074143126 -0.0004928894 -0.0011099118 0.001230183 0.0007298915 0.0016355519 2.5132069e-05 -0.00036023837 -0.0004978044 0.0015743457 6.1668e-05 0.001458339 -0.0008384496 0.0014238342 0.0010269758 0.00078363874 0.0007184547 0.00055986707 -0.0007903291 -0.00032052962 -0.00083322776 0.0014599791 0.0008669322 -0.0003322072 -0.0012287869 -0.0008680378 -0.0014362959 0.0010533042 0.0008789734 -0.00018873754 0.00083411287 -0.00046503838 -0.0010493979 -0.00076141226 0.0014197866 -0.0011366805 0.001678212 -0.0005090007 -0.0012772611 0.00092940265 -0.0014519274 -0.0004642027 -0.001010103 0.0009246989 0.0009656435 0.00039088418 -0.00049106963 -0.0013333659 -0.0011876127 -0.0006702301 0.00087535323
also -0.0012933904 0.00014275113 -0.0012861594 -7.408662e-05 0.0007936844 0.0013641726 0.0010569282 0.00019453655 0.0016282615 0.0007169812 -0.0012147463 -0.00084640353 -0.0013285667 0.00078990165 -0.0010016398 0.0011543001 0.0005815334 -0.00094425806 -0.00047882192 0.0008210415 0.0010004969 0.0001727285 -0.00053768064 -0.001576051 -0.0015403039 0.00084393064 0.0016506268 -0.000133092 -0.00014526233 0.0010575046 -0.00022146004 0.0013909579 -0.001145606 -0.0015718135 0.0006593857 0.00055372383 0.00075849006 0.0016114034 -0.00075977686 0.0009855111 0.00022533699 0.00010075935 -0.0013451488 0.0006176852 -0.0015655048 -0.00090706197 -0.0013927375 0.00017458084 -0.0014087624 0.0012485472 0.00044702235 0.0007805273 0.0011339446 -0.0016082644 -9.544093e-05 -0.0004498842 -0.00073066214 -0.0006094811 0.00026555313 -0.0013243771 0.0010123375 -0.00036066564 0.00091550767 0.00085735496 0.00050852506 0.0004200237 0.0007578982 8.706313e-05 -0.0015128162 0.00059156894 0.00078888144 -0.00028919036 -0.0016437272 0.001315046 0.00021242948 2.640183e-05 0.0019024196 -0.0016574505 0.00046248233 -0.00041767853 0.00074821356 0.0011158859 0.00046109036 0.0018209529 0.0012598799 0.00032651873 -0.00034616582 0.0001789349 -0.001724457 0.0014172541 0.0009067579 2.707245e-05 0.0013138818 -0.00072408444 -0.0018021178 -0.0011601411 -2.6763007e-06 0.0014126893 0.00048321905 -0.00037835955 -0.0016117922 0.0013080029 -0.0016483163 -0.0011866314 0.0008049256 0.000109738656 -0.0015546089 0.001363814 0.000510731 -0.0010340004 -0.0008788823 -0.0003035167 -0.00034639228 0.0010691074 0.0010508591 0.0007458958 -0.0014357904 0.0003267407 -0.00070649065 0.0006071765 6.4296044e-05 -0.0012390354 0.000537667 -0.0002508076 0.0015679564 -0.0013116568 -0.0015357395 0.00027653846 -0.00085445 -0.0010177937 0.00043999142 1.1490672e-05 -0.0007951056 -0.00034327924 -0.00019251538 0.0009857876 0.0004152933 -0.0006704658 0.0008619585 -0.0011662067 0.0008730327 -0.0008949313 -0.0001290345 0.00039106846 0.00048142523 -0.000915087 0.00020262889 -0.0014273965 -0.000944388 0.00022236728 0.00092392333 0.0015078048 -0.0011137394 -8.346567e-05 0.0010048276 0.00059894467 -0.0005474053 0.0015211938 -0.00048698182 -0.0010878319 0.0009958134 -7.627419e-05 -0.001666375 0.00026736545 0.0013623078 0.0011715955 0.0005440869 -0.00034003906 2.83844e-05 -0.0002455139 0.0012481173 -0.0006000503 0.0009985518 -0.00064406166 0.0014697947 0.001743415 0.0013402983 0.0013035376 0.0007072507 0.00015114094 -0.0013834339 -0.0009833822 0.0015434544 0.0018161233 -0.0005564378 -0.00079527614 -0.00088783784 -0.00055437937 -0.0007268656 0.00064497953 0.00070590887 0.000543655 -0.0014212648 -0.00041763016 -0.00052240904 -0.0012961249 0.0009603149 0.0013520382 -7.182198e-05 0.00040944014 -0.001449148 0.0008109064 -0.0008837968 -0.0017666562 0.00074595766 0.00076485664 0.0011802491 0.00093302253 0.0012406387 0.00027982064 -0.0013747184 0.00084540836 0.0004088029 -0.0007234545 -0.0009095857 -0.0012716367 -0.0012543718 -0.0013450021 -0.0011772934 -0.0011719884 -0.0017150837 0.000817866 0.0008284704 0.0010856944 0.00089050946 0.0007634808 0.0010719271 0.0016230209 -0.0012827275 -0.0003609772 -0.0011478825 -1.1570189e-05 -0.00028292672 -0.0012492818 0.0013549867 -8.098112e-05 0.0013902838 -0.0003166099 0.0013621921 -0.001209238 0.00057556527 0.0020239428 0.00013267528 -0.0015729205 -0.0011511208 -0.0011227289 0.00048755112 0.0013274318 -0.0015356031 0.00031552743 -0.0007002455 0.00017523725 -0.00070128107 0.00018230523 -0.0014839827 0.00034666204 -0.0009153977 0.0006231467 -0.0015015153 0.0014292961 -0.00067539525 -0.0010687961 -1.5799631e-05 0.0006250142 0.0009796622 -0.0008097095 -0.0003659888 -0.0011450455 0.00063877756 -0.0010771018 -0.0003167324 -0.001039311 -0.0009651064 0.0005079553 -0.0010304956 0.0007363769 -0.0003440921 -0.0013338804 0.0012255633 0.0011643616 -0.00077642425 -0.00061601395 -0.0004302844 -0.0014304677 0.0015588433 0.00064835546 -0.0014157495 0.0002625903 0.00094082125 -0.0014215467 0.0012169768 -0.0008034977 0.0006162451 -0.0005361104 -0.00068901136 -0.001554032 -0.0013306926 7.981455e-05 0.0012258624 0.00074440724
reception 0.0015617416 -0.0006343148 0.00015695996 0.00078514975 -1.802353e-05 -0.0009911578 0.0012287378 -0.00031894955 -0.0005015645 -0.0011250791 -0.00093178503 -0.0014911834 0.00026904792 -0.0012895276 0.0006453743 0.0010297615 0.0012954125 -0.0013226381 0.00010647743 0.00030515416 -0.0008783048 -0.00035094813 0.00064248143 -0.00073477667 -0.0015718556 -0.0006137036 -0.0013392488 0.0012654874 -0.0006893984 2.2670938e-05 -0.0011409386 -0.00025694148 -3.1381194e-05 -0.0003663716 0.0001042968 0.00067634304 -2.1165199e-05 0.00086190435 -0.00081789633 0.00014759693 -0.00033992462 -0.00058783864 0.001252725 -0.0014918424 -0.0017018566 0.0016249153 0.00089794653 -0.0013743852 -0.00058965146 0.0010793768 0.0010705146 -0.0013593002 0.0011092442 -0.0014213256 0.0008860118 0.00073480955 -0.0005454846 -0.00017958591 0.0009863258 -0.00096691784 -0.00086426234 0.00022075613 0.0008957348 0.00027856627 -0.0005436004 0.0014953768 0.0016349532 -0.0016747777 0.0016992318 -0.00047452556 -0.00021665212 0.0011886114 0.00015000135 0.0017398314 -0.0008014695 0.0013779011 -0.00080651446 0.00068889564 0.0005095296 9.226989e-05 0.00034199466 0.0016640712 0.0008496021 0.00015890844 -0.00096626 0.00052437 0.0007259059 0.00073336286 -0.00046613935 0.00052529416 0.0012521353 0.00067322294 -0.0007392317 -0.0013588531 0.0005456394 -0.00043042333 -0.0015546905 -0.0014275514 0.00058198924 -0.00017036381 0.0011590362 0.0008643171 5.1189538e-05 -0.00037244012 -0.00019301883 0.0015337238 2.7437665e-05 -0.0017524774 0.0012576206 0.000784923 -0.0012511025 0.001070872 0.0010755957 0.0012290324 -8.8695844e-05 -0.0012756904 0.0010852616 0.00046532718 3.3523604e-05 -0.0005347236 -3.2876993e-05 0.0016008138 5.743826e-06 0.0008244015 -0.001265579 -2.5595516e-05 -0.00090348953 -4.3834825e-05 0.00045665854 0.0014270336 9.68329e-06 -0.00020402529 0.0001472709 0.0005987111 0.0013983187 0.00061089697 -0.0015628176 -0.0006411222 -0.0010826208 -0.0005245802 -0.0008596931 -0.000999224 0.0016462582 0.0013464927 0.0011163637 -0.0013899829 -4.1908024e-05 0.0007244021 0.0016447003 0.00014311408 -0.00095027266 -0.0012569942 0.000663787 -0.00034510987 0.0005181321 0.00022406102 -0.0009139743 0.00030682003 0.0014267206 0.0006852792 -0.0009868869 -0.00025395566 -0.0003387356 0.001718507 0.0012041794 -0.00038666336 3.2442345e-05 0.00033059437 0.00020009675 0.00015717238 -0.00060379924 0.0013994379 0.00019948752 0.0015179692 0.0015742548 -0.0014254858 0.00094923726 0.00065199204 0.00012052825 -0.0004890422 -0.0011335486 0.0014942196 0.0014187405 0.0010666668 0.00011286187 0.00049915473 0.0012030692 0.0007883413 -0.0016604718 -0.0007242232 0.0015619779 0.00019634583 -0.0009007516 0.0009732301 -0.0015444232 0.00055033446 -0.00092126935 0.0007687892 -0.0012890344 0.00039092317 -0.00015446452 -0.0010904013 -2.7338221e-05 -0.00022899026 -0.00050014356 0.0008714709 -0.00015479594 0.00012050536 0.0010993935 0.001598982 -0.00072500395 -0.0007558496 -0.00070279784 0.0009676567 -0.00095785066 -0.00034620595 -0.0015431182 -7.52173e-05 -0.0016124112 0.00074028544 -0.0016994545 0.00053970737 0.00076968735 -0.0012144856 -7.008281e-05 0.0017112476 0.00036685105 -0.00020950017 0.0011991548 0.001274662 -0.0011577432 0.0013545091 -0.00078304514 0.00069590105 -0.0016894198 9.109649e-05 -0.00020864132 -0.0010940729 0.00039191116 -0.0007953493 0.00021781152 0.0011619531 -0.00012176157 -0.0005900449 0.00093397405 0.0007571359 0.0012304219 0.0012583564 0.001593678 -0.0017342052 0.0013166346 -0.0010509487 -0.000648331 -0.00050984405 -0.0005849958 0.00013021613 -0.00034762872 -0.0011541566 -0.0009872053 -0.0016173252 -0.001359353 -0.0006859077 -0.001229239 0.0012766371 -3.0251766e-05 -0.00036871058 -0.00085000106 0.00023451552 0.00059732515 -0.0005057776 -0.0010581698 -0.0015935245 -0.001442242 -0.0015676727 -0.0005481985 0.00094631885 -0.0012490379 0.0016341187 -0.00038510232 0.00024107733 -0.00010869262 0.00086558575 0.0008991766 0.0013826042 -0.00013985521 -0.0013319548 0.0014222343 -0.00062985264 0.0015450278 0.001163484 0.00077150034 0.0012774966 8.0786056e-05 0.0013726715 0.0012170997 -0.0015236286 -0.00046213687 0.0013975713 -0.0009447426 0.00035072176
took -0.0015843697 -7.723455e-05 0.00086521625 -0.0007318077 -0.001209517 -0.00031890217 0.0012858349 -0.0015696603 0.001424168 -0.00078751 0.0013787036 -0.00030719978 -0.00014155984 0.0008821327 0.0009149628 0.0016171731 -0.00042187495 0.0017401425 0.0015690979 -0.0007142836 0.0010775145 -0.0012475839 0.0007354814 -0.00087737857 -0.0006559584 0.0011324333 0.00031066057 -0.0014162979 0.00052811584 0.0015979959 -0.00012945327 -0.00011378631 -0.0013854927 -0.0015891072 -0.0008155987 0.00076326187 0.00025545244 0.0009455772 0.001640503 0.0005347566 0.0011670474 0.0009688535 -0.000626285 0.0016281379 0.00026582705 0.0011180597 0.00060460484 -8.924603e-06 -0.001311754 0.0006892236 0.0011710289 -0.00012217111 0.0011104322 0.0011977582 0.0011584478 -0.0003086681 0.0012225532 0.0006250972 0.0015815332 -0.00039587775 0.0008989126 -0.00012289491 -0.0015920813 -0.0001066599 -0.001301193 0.0007810136 -0.00065193477 0.0006531623 0.0010412406 -0.001248434 0.0014344907 0.0008854632 -0.0014808093 0.0005883385 -0.00083161675 -0.00038776355 -0.0009520368 0.00033779166 0.0010735033 -0.0017022588 -0.00014179178 -0.0010168776 -0.00020996746 0.0011910441 0.0004836244 -0.00083095854 0.00036284086 -0.0012395084 0.0010496519 0.0005017096 -0.0010898493 -0.0008976717 0.00048688496 0.0014908501 8.442555e-05 0.0009637355 -0.0014175333 -0.0007268679 6.0133243e-05 0.00083113735 -0.001373315 7.034758e-05 0.001396033 -0.0017088939 0.00029734714 0.0003797781 -0.000722982 -0.0011374712 -0.0010029539 0.0001952924 0.0011792772 0.0012108089 0.0009878788 0.000537918 0.0016496434 0.00075348065 0.00015251261 0.0003732742 -0.00096009 0.0012159592 0.0016131578 0.0005426727 -0.0014642386 0.001587198 -0.0013515464 -0.00044165083 -0.00040357243 0.0010817477 0.00014591654 0.0009473615 -0.00087294425 -0.00085024844 -0.0011516801 -0.0005293188 0.00024564934 -0.0015960021 -0.0011316186 0.0014134762 0.0007348892 0.0011424524 -0.0016595636 0.0015426595 -0.0012467838 0.000711378 -0.0009903237 0.0014018129 0.0013570188 0.0012310935 -0.0015885958 0.0014993245 0.00088623527 -0.0004925683 -0.00065263576 -0.00010410553 0.00080975535 -0.00065970095 -0.0011580266 0.0014140964 -0.0010920565 -0.0015117698 -0.0007475269 0.001587485 -0.0014092525 -1.5164881e-05 0.0006831107 -0.001265308 0.0014949974 -0.0014633496 0.00156123 0.0016304521 -0.0013865209 0.0012270259 -0.001269031 -0.0012553977 -0.00076310814 0.0013194977 0.00032967908 0.0004598212 0.0016436869 -0.0004313012 0.0010425337 -0.00022486343 -0.0015581293 -0.001388631 0.00061883655 -0.001222476 -0.000622973 -0.0016230419 0.00026533927 0.0012431975 -6.264047e-05 -0.0013775484 0.000601842 -0.0009079887 -0.0003381436 0.0011922915 0.00024284124 0.00088658126 0.0006415506 0.0016750705 -0.0005333562 -0.001709551 -0.0012876492 0.00040291427 0.0008112273 -0.0005445713 -0.0014792508 -0.00063255796 0.001716712 0.0012512339 0.00087237876 0.0008495112 0.00081493077 0.0011181977 -0.00051707757 -0.0012238562 -0.0001421606 1.819459e-05 -0.0014805626 0.0010460878 -0.0015068927 0.00091820623 0.0002842073 0.00035264864 0.0006726465 -0.0005208707 0.00046635943 -0.0005884922 6.1642e-05 -0.0009763593 0.001412619 -0.00017708563 -0.0014964058 -0.0011515016 0.0006638535 -0.0009377441 -0.00061705377 0.00018212071 0.0013042085 -0.00016392829 0.001356206 -0.000639654 -3.2046817e-05 0.0013608736 0.0013382541 -0.001397653 -0.0009456426 0.0013190976 -0.0014465147 -0.0014021208 0.0010670804 -0.0013156474 0.0001722501 0.0007747988 -0.00048720677 -0.00088448747 9.429686e-05 -0.0015881053 0.0016174974 -0.0012458676 -0.00068132556 -0.0015213693 0.0014035851 -2.3642127e-05 -0.0010804229 -0.0010105282 0.00014758122 0.0014522147 -0.0010312821 -0.0007954635 -0.0013789099 -0.00023610373 -0.00046869315 -0.00033436168 0.00076175 -0.0005361616 -0.0010758091 2.1833788e-05 0.00025307082 -0.00039100606 0.0007842624 0.0012849504 0.0016101765 -0.0006740462 -0.00010097763 0.0005097947 0.0001540906 -0.0013868243 0.001149502 0.00060613704 0.00034485123 0.0012854543 -0.0015956083 0.00054241763 -0.0009858789 0.000119725955 -0.0014469154 -0.0004921857 0.0005717019 0.00036870764
film 6.2412575e-05 -0.0008778225 0.0011144198 0.00088938646 0.0012202485 -0.0013215665 -7.942089e-05 -0.0006863814 0.0016113597 -0.0012211262 -0.0015378657 -0.0010203295 0.00055107713 -0.0014298822 -0.0006957714 -0.00014862843 0.00038388744 0.00031804998 -0.00042599696 -0.00062230026 0.00017056073 -0.00013078004 -0.0017625606 0.0010645575 -0.0012651829 -0.0012707185 -0.0011881151 -0.0007127498 0.00037864543 -0.000686305 0.0012065015 5.2335778e-05 2.2778073e-05 -0.0012258056 0.0006747958 -0.0010907426 0.00068791985 -0.0014335362 0.0015520619 -0.001163023 0.0016633172 -0.00024625988 -0.0015068332 0.0003051362 -0.0012442057 0.0004270003 -0.00042425672 0.0007973343 -0.0016546672 -0.0014974257 -0.0010036317 0.00067134656 -0.00039790288 -0.0015031372 0.00027881653 0.0004139286 0.0014349039 0.0005735623 -0.00049585605 -0.0014017712 0.0014701446 0.0010730567 0.0004540708 0.00051407743 0.00015187004 0.0009872168 0.0012796127 -0.001510512 -0.0014418215 -0.0008247985 -0.0002498226 -0.0015397116 0.0014993546 -0.0007229739 -0.00018118201 -0.00046402815 0.0008195056 0.0012907943 0.0010876259 -0.0015335683 0.0010934947 0.00076621876 -0.0011291761 0.0002477865 0.0011379726 0.0012153898 0.0011857101 -0.0015351973 -0.0017023829 0.0006064122 0.00084468635 0.0009693659 -0.0011077257 0.0012728795 -0.0009580591 0.00078126736 -0.001097805 0.00055117474 0.0002728592 -0.00072667486 -0.0011917464 0.001265136 0.0012678333 -0.00046300667 0.00068270887 -0.001574958 0.0009848514 -0.0013189618 1.6649397e-05 0.00035624573 0.00022068286 -0.0004977031 0.00036387774 -0.00055376283 -0.0010563569 0.0015388085 0.00010336992 -1.7104961e-05 0.00084128376 0.0005736242 0.00061424385 -0.00012765474 0.00054713804 -0.0010110823 -0.0010808215 0.00065943855 0.0002098318 0.00022427575 -0.00088399276 0.001290022 -0.0006850097 -0.00024078436 0.0017130715 0.000470671 0.0003448581 0.0015275215 -0.0005892254 0.0013440882 -0.0012169277 -0.00065631873 0.0011628682 0.0008236207 -0.00080682413 0.0010161513 0.0003873446 0.0008308275 0.0008609053 -0.0015968721 -0.0016029706 0.0005991682 -0.0009574404 -0.0010304407 0.0012416937 -0.00082750607 -0.00010826279 0.001159657 -0.0014242373 0.0016738082 -0.00074946135 -0.0012425331 -0.0012069758 -0.001091155 0.0007783473 0.0017967001 7.3649403e-06 0.0011387417 -0.00067256513 -0.0014102355 -9.544691e-05 6.129203e-05 0.0005611432 -0.0007073763 -0.00058649067 -4.5193956e-05 0.0001259418 0.00036391063 -0.0016271337 0.00056121696 0.0014522127 -0.0010901392 0.0005239032 0.0006815196 0.0015193591 -0.0005891024 0.00046217642 0.0016082199 0.0007175471 -0.0007166763 -0.0008564107 0.00080877147 -0.0012551786 -0.0016664487 2.5392948e-05 0.0003460261 -0.00014464528 -0.0001468074 -0.0008503011 -0.0012482663 0.0005302977 0.001099128 0.0012748854 0.0007750872 -0.0010204309 0.00017423736 0.0012223807 0.00010575409 -0.00096809445 -0.0010944551 -0.00023645062 -0.00015508496 0.0010950437 0.00067731884 0.0007915676 0.00030348598 -0.001002423 -0.0008002965 -0.0011983324 -0.0007731597 0.0013063105 0.0016892176 0.00050674623 0.00022948626 -0.0013350259 0.0010304668 -0.0012073155 -0.0013003463 0.00096061855 0.00021531321 -0.0004476706 0.0011919289 -0.0012242795 -0.0015358407 0.00026788627 -0.0001761446 0.00038926624 -0.00047762043 -0.00087937166 0.0007889099 -0.0004325581 0.000795335 0.001598068 -0.00043582666 -0.0014280321 -0.00034224056 0.00022845532 0.0014940142 0.00023034378 0.0016385327 -0.0011240727 0.0008652458 0.0010307572 -0.0012000158 7.239884e-06 -0.001029189 0.00059150235 -0.00036877408 -0.00094023155 0.0011981496 0.00012225707 0.0009622761 0.0013941537 -0.00023651392 -0.0010890677 0.00023260473 0.0016339408 0.0009798638 0.00078059547 0.00081771053 -0.0010586104 -0.0008372652 0.0008681127 -0.00062104256 -0.0005220467 -0.0002732014 -0.0013496428 0.0013858454 0.0014334652 0.00020124765 0.0008131593 2.3765833e-06 -0.0003860176 0.0013997881 -0.0010998993 -0.0002122888 0.00014496445 -0.00061185344 0.0017205268 0.00024313724 -0.0013284566 0.00048833305 0.00023954111 -0.0016042228 -0.00060350104 0.000967905 0.0008338134 0.0008648541 0.0003579256 -0.0003007299 -0.0001521584 0.0015008812
tied 0.0009897803 0.00054065284 0.0007889973 -0.0009242662 0.0002995117 0.00072081876 -5.2951505e-05 0.0010678429 -3.870674e-05 0.0013798581 0.0012359716 -0.0005688661 -0.00072982087 -0.0010388787 -0.0016464654 0.00028494876 -0.0011561002 0.00033252581 0.0011222978 1.1567291e-05 -0.00128493 0.00034370596 0.00095778116 -0.00044229702 0.00085782463 0.00084517495 0.0016155196 0.0014165702 0.00069370674 0.0012622816 0.00027649614 -0.0012877953 -0.001577162 -0.001216648 -0.00055267196 0.00022839794 -0.00021497977 -0.0007676316 0.0016246408 0.00063434005 -0.0001320482 0.00017806246 -0.0004311311 0.0011214387 -0.000192728 -0.0013405568 0.00052456214 0.0006934738 0.0009039599 -0.00027117983 -0.0009528374 0.0014511629 0.0013487056 -0.00035750878 0.00030956062 -0.00094046304 -0.00030922442 -7.580482e-05 -0.00076014193 0.00053668325 0.0013975112 -0.0005652411 -0.0011544462 0.0015654308 0.0007053676 -0.0015200431 -0.0012177082 -0.00039421918 -0.0003800311 -0.0009621188 -0.0008082636 -0.00083603157 -0.000645195 0.0008790122 0.0015602676 0.00092359347 -0.00022107945 0.000108913766 -0.00032063035 0.0006636021 -3.5065033e-05 0.00027995557 0.0015404634 0.00030237585 -0.00059299107 -0.00044453985 0.0004814068 0.0013142618 -0.0006259277 -0.0012058751 -0.0011731081 0.0007240845 0.001145288 0.0012633145 -0.00084311573 0.0012125915 -0.00080840866 -0.00057742104 -8.097689e-05 -0.0002921937 -0.0003108732 0.00095353747 -0.0012503507 -0.00016095708 -3.1272535e-05 0.0011778722 0.00034459174 -0.0015012133 0.001320845 -0.00023488599 0.00011886523 0.0017222076 0.00071409426 -0.00013791391 -0.0016502049 -0.0013069875 0.0008542277 0.00092744734 0.001217093 -0.0006724033 -0.00016976852 0.00033080424 0.0011029897 -7.509015e-05 -5.8617687e-05 -0.00029719074 0.00076613436 5.5593762e-05 0.0001958666 0.0015718499 0.00013242372 0.00022350565 0.0002909313 -2.1026468e-05 0.0014694325 -0.0013728545 -0.0006915859 -0.0009322264 0.0012161416 0.00026357526 -0.00018996582 0.00040255254 0.0016767097 -0.0009605602 0.0015212148 -0.001174285 -0.00079566287 0.0012742449 0.00038049716 -0.0016304526 -0.0016268746 0.0015532664 0.0004896714 -0.00058044237 -0.0013910249 -0.0004521252 -0.000157707 0.0012060783 -3.7590296e-05 0.0011366293 -0.0014231657 -0.0005186975 0.00031304284 0.00068302965 0.0002973443 -0.0006107816 0.001391587 0.00045167812 0.00076802366 0.00059101806 0.0016148956 1.4090936e-05 -0.0010737226 0.0009153601 0.0016223423 0.0010943477 -0.0002097504 0.0012949368 0.00089571194 0.00054716604 0.00013657122 -0.0009710216 -0.00112452 0.00063265965 -0.0008416991 -0.0012062363 -0.0011237464 0.0011566659 0.0011326087 -0.001147886 -0.00060825405 -0.00037902934 -0.00045823384 -0.00037982847 1.0190465e-05 0.0006985054 -0.00096010376 -7.716059e-06 -0.00037519788 -0.0006980432 -0.0003821407 -0.0003780885 0.00035394097 -0.0014790938 0.0010606733 -0.0006891571 -0.0015552202 -0.0005139335 0.00051911065 -0.00047952327 -0.0010744573 0.0010318507 0.00089250354 0.0014944292 0.0010024839 0.0004046434 -0.00058228255 -0.001036947 0.0012539134 0.00022638032 -8.655133e-05 -0.0012148874 -0.00042625534 -0.0005815546 -0.00090079673 -0.00067256694 -0.00062930933 0.0013307171 0.00026174367 -0.0005556305 0.00047432122 -0.00045033445 -0.0007803328 -0.000105291714 -1.7190776e-05 0.0013047023 -0.000563145 0.000447791 -0.00094232673 0.001512825 0.0009161913 0.0015621491 0.001679809 0.00044378144 -0.00078454416 -0.001045576 0.00057338516 -0.000136472 0.0011131295 -0.001475015 0.0013381995 -0.0009453576 0.00059229607 0.0010273629 0.001269499 -0.0010100214 -0.0014821063 -0.00091841276 0.00047839648 0.0010912886 -0.0011511899 0.0017152408 -0.0008080241 0.0015003135 0.0014275584 -0.00089332124 -0.00029583345 0.0015271421 0.00113749 0.0007225132 -0.00042819863 -0.0014269714 5.4202585e-05 0.00048159598 0.00020598753 -0.0009506676 -0.0015500023 -0.0007387617 -0.0015889663 -0.0003147015 0.0007436785 0.0010908153 -0.0011140385 0.00084027776 0.0012109141 0.0013672193 0.0010499607 0.0008873764 0.0014012239 -0.00021549869 0.0002846655 -0.0007497417 9.652465e-05 -0.00012785596 -0.000110016226 0.0002512782 -0.0001278526 -0.0006318584 -0.00088771834 -0.0007688703
